{"learner":{"attributes":{"scikit_learn":"{\"_estimator_type\": \"regressor\"}"},"feature_names":["day_of_week","day_of_month","month","year","is_weekend","is_holiday","rolling_mean_2","rolling_mean_7","rolling_mean_30"],"feature_types":["int","int","int","int","int","int","float","float","float"],"gradient_booster":{"model":{"gbtree_model_param":{"num_parallel_tree":"1","num_trees":"100"},"iteration_indptr":[0,1,2,3,4,5,6,7,8,9,10,11,12,13,14,15,16,17,18,19,20,21,22,23,24,25,26,27,28,29,30,31,32,33,34,35,36,37,38,39,40,41,42,43,44,45,46,47,48,49,50,51,52,53,54,55,56,57,58,59,60,61,62,63,64,65,66,67,68,69,70,71,72,73,74,75,76,77,78,79,80,81,82,83,84,85,86,87,88,89,90,91,92,93,94,95,96,97,98,99,100],"tree_info":[0,0,0,0,0,0,0,0,0,0,0,0,0,0,0,0,0,0,0,0,0,0,0,0,0,0,0,0,0,0,0,0,0,0,0,0,0,0,0,0,0,0,0,0,0,0,0,0,0,0,0,0,0,0,0,0,0,0,0,0,0,0,0,0,0,0,0,0,0,0,0,0,0,0,0,0,0,0,0,0,0,0,0,0,0,0,0,0,0,0,0,0,0,0,0,0,0,0,0,0],"trees":[{"base_weights":[1.6919523E1,-5.2018634E2,6.754129E2,-9.2413696E2,-2.7692184E2,3.7520187E2,1.0802759E3,-6.339142E1,-3.450385E1,-2.3494337E1,-7.7194467E0,8.738814E0,2.581507E1,2.3022415E1,6.190394E1],"categories":[],"categories_nodes":[],"categories_segments":[],"categories_sizes":[],"default_left":[0,0,0,0,0,0,0,0,0,0,0,0,0,0,0],"id":0,"left_children":[1,3,5,7,9,11,13,-1,-1,-1,-1,-1,-1,-1,-1],"loss_changes":[1.3227423E8,1.9987056E7,2.0014112E7,5.319316E6,3.001245E6,2.681198E6,6.37448E6,0E0,0E0,0E0,0E0,0E0,0E0,0E0,0E0],"parents":[2147483647,0,0,1,1,2,2,3,3,4,4,5,5,6,6],"right_children":[2,4,6,8,10,12,14,-1,-1,-1,-1,-1,-1,-1,-1],"split_conditions":[2.253641E3,1.5392085E3,2.781688E3,1.200385E3,1.8699075E3,2.453309E3,2.5222153E3,-6.339142E1,-3.450385E1,-2.3494337E1,-7.7194467E0,8.738814E0,2.581507E1,2.3022415E1,6.190394E1],"split_indices":[6,6,6,6,6,6,7,0,0,0,0,0,0,0,0],"split_type":[0,0,0,0,0,0,0,0,0,0,0,0,0,0,0],"sum_hessian":[3.72E2,2.05E2,1.67E2,7.6E1,1.29E2,9.7E1,7E1,2.9E1,4.7E1,4.9E1,8E1,4.1E1,5.6E1,1.5E1,5.5E1],"tree_param":{"num_deleted":"0","num_feature":"9","num_nodes":"15","size_leaf_vector":"1"}},{"base_weights":[5.021345E0,-4.9599228E2,5.378188E2,-8.6379236E2,-2.6063425E2,1.7872234E2,8.838318E2,-3.4049957E1,-6.9778564E1,-9.806872E0,-3.1477615E1,1.26512165E1,-1.3196678E1,3.7458187E1,6.1816128E1],"categories":[],"categories_nodes":[],"categories_segments":[],"categories_sizes":[],"default_left":[0,0,0,0,0,0,0,0,0,0,0,0,0,0,0],"id":1,"left_children":[1,3,5,7,9,11,13,-1,-1,-1,-1,-1,-1,-1,-1],"loss_changes":[1.04105944E8,1.7174368E7,2.332568E7,6.631652E6,2.826982E6,3.1584615E6,3.63084E6,0E0,0E0,0E0,0E0,0E0,0E0,0E0,0E0],"parents":[2147483647,0,0,1,1,2,2,3,3,4,4,5,5,6,6],"right_children":[2,4,6,8,10,12,14,-1,-1,-1,-1,-1,-1,-1,-1],"split_conditions":[2.137348E3,1.5265525E3,2.658937E3,5E0,5E0,5E0,3.201171E3,-3.4049957E1,-6.9778564E1,-9.806872E0,-3.1477615E1,1.26512165E1,-1.3196678E1,3.7458187E1,6.1816128E1],"split_indices":[6,6,6,0,0,0,6,0,0,0,0,0,0,0,0],"split_type":[0,0,0,0,0,0,0,0,0,0,0,0,0,0,0],"sum_hessian":[3.88E2,2E2,1.88E2,7.7E1,1.23E2,9.3E1,9.5E1,5.9E1,1.8E1,1.06E2,1.7E1,8E1,1.3E1,7.1E1,2.4E1],"tree_param":{"num_deleted":"0","num_feature":"9","num_nodes":"15","size_leaf_vector":"1"}},{"base_weights":[-3.5640415E1,-5.167404E2,3.5815738E2,-3.7105612E2,-1.0722263E3,1.5015236E2,6.0143256E2,-2.7079172E1,-8.1078825E0,-5.7910976E1,-2.3177807E1,1.2087328E1,-2.3524286E1,1.929226E1,4.1368935E1],"categories":[],"categories_nodes":[],"categories_segments":[],"categories_sizes":[],"default_left":[0,0,0,0,0,0,0,0,0,0,0,0,0,0,0],"id":2,"left_children":[1,3,5,7,9,11,13,-1,-1,-1,-1,-1,-1,-1,-1],"loss_changes":[7.198894E7,1.3440412E7,1.0485608E7,4.792516E6,1.295052E6,6.594279E6,4.357028E6,0E0,0E0,0E0,0E0,0E0,0E0,0E0,0E0],"parents":[2147483647,0,0,1,1,2,2,3,3,4,4,5,5,6,6],"right_children":[2,4,6,8,10,12,14,-1,-1,-1,-1,-1,-1,-1,-1],"split_conditions":[2.0091893E3,5E0,2.5876445E3,1.6826473E3,1.7528877E3,5E0,3E0,-2.7079172E1,-8.1078825E0,-5.7910976E1,-2.3177807E1,1.2087328E1,-2.3524286E1,1.929226E1,4.1368935E1],"split_indices":[7,0,7,7,7,0,0,0,0,0,0,0,0,0,0],"split_type":[0,0,0,0,0,0,0,0,0,0,0,0,0,0,0],"sum_hessian":[3.78E2,1.7E2,2.08E2,1.36E2,3.4E1,1.13E2,9.5E1,7.4E1,6.2E1,2.9E1,5E0,9.9E1,1.4E1,5E1,4.5E1],"tree_param":{"num_deleted":"0","num_feature":"9","num_nodes":"15","size_leaf_vector":"1"}},{"base_weights":[6.2250333E0,-4.2845505E2,5.5539435E2,-9.613926E2,-2.2495615E2,2.021121E2,8.276016E2,-3.449937E1,-6.4602394E1,-1.9710794E1,-2.302758E0,1.5219535E1,-2.0566853E1,3.436358E1,6.2781216E1],"categories":[],"categories_nodes":[],"categories_segments":[],"categories_sizes":[],"default_left":[0,0,0,0,0,0,0,0,0,0,0,0,0,0,0],"id":3,"left_children":[1,3,5,7,9,11,13,-1,-1,-1,-1,-1,-1,-1,-1],"loss_changes":[9.0232744E7,2.266714E7,1.5892456E7,4.313512E6,4.645077E6,4.768167E6,4.7831E6,0E0,0E0,0E0,0E0,0E0,0E0,0E0,0E0],"parents":[2147483647,0,0,1,1,2,2,3,3,4,4,5,5,6,6],"right_children":[2,4,6,8,10,12,14,-1,-1,-1,-1,-1,-1,-1,-1],"split_conditions":[2.2476006E3,1.441492E3,2.658937E3,5E0,1.8718735E3,5E0,3.3519504E3,-3.449937E1,-6.4602394E1,-1.9710794E1,-2.302758E0,1.5219535E1,-2.0566853E1,3.436358E1,6.2781216E1],"split_indices":[6,6,6,0,6,0,6,0,0,0,0,0,0,0,0],"split_type":[0,0,0,0,0,0,0,0,0,0,0,0,0,0,0],"sum_hessian":[3.76E2,2.1E2,1.66E2,5.7E1,1.53E2,7.3E1,9.3E1,3.3E1,2.4E1,7.8E1,7.5E1,6.3E1,1E1,7.2E1,2.1E1],"tree_param":{"num_deleted":"0","num_feature":"9","num_nodes":"15","size_leaf_vector":"1"}},{"base_weights":[-3.828714E1,-3.5329263E2,6.54006E2,-8.845528E2,-1.788273E2,5.464343E2,6.66258E1,-7.122736E1,-3.753265E1,-1.9612974E1,-1.8410257E0,1.923581E1,3.4077145E1],"categories":[],"categories_nodes":[],"categories_segments":[],"categories_sizes":[],"default_left":[0,0,0,0,0,0,0,0,0,0,0,0,0],"id":4,"left_children":[1,3,5,7,9,11,-1,-1,-1,-1,-1,-1,-1],"loss_changes":[8.5062664E7,2.4681798E7,8.17646E6,3.702796E6,6.1382465E6,2.075696E6,0E0,0E0,0E0,0E0,0E0,0E0,0E0],"parents":[2147483647,0,0,1,1,2,2,3,3,4,4,5,5],"right_children":[2,4,6,8,10,12,-1,-1,-1,-1,-1,-1,-1],"split_conditions":[2.439056E3,1.441492E3,3.374451E3,8.222545E2,1.8718735E3,2.7683584E3,6.66258E1,-7.122736E1,-3.753265E1,-1.9612974E1,-1.8410257E0,1.923581E1,3.4077145E1],"split_indices":[6,6,6,6,6,6,0,0,0,0,0,0,0],"split_type":[0,0,0,0,0,0,0,0,0,0,0,0,0],"sum_hessian":[3.88E2,2.67E2,1.21E2,6.5E1,2.02E2,1.06E2,1.5E1,1.1E1,5.4E1,8E1,1.22E2,5E1,5.6E1],"tree_param":{"num_deleted":"0","num_feature":"9","num_nodes":"13","size_leaf_vector":"1"}},{"base_weights":[-1.127642E1,-3.4273016E2,6.143636E2,-8.549156E2,-1.7451851E2,5.035333E2,1.0677693E3,-3.0533854E1,-6.0358986E1,-1.8809896E1,-1.7367064E0,-2.0036562E1,2.614564E1,4.2921753E1,7.7161674E1],"categories":[],"categories_nodes":[],"categories_segments":[],"categories_sizes":[],"default_left":[0,0,0,0,0,0,0,0,0,0,0,0,0,0,0],"id":5,"left_children":[1,3,5,7,9,11,13,-1,-1,-1,-1,-1,-1,-1,-1],"loss_changes":[8.502519E7,2.2940496E7,6.597996E6,4.941208E6,5.709835E6,2.24235E6,1.362572E6,0E0,0E0,0E0,0E0,0E0,0E0,0E0,0E0],"parents":[2147483647,0,0,1,1,2,2,3,3,4,4,5,5,6,6],"right_children":[2,4,6,8,10,12,14,-1,-1,-1,-1,-1,-1,-1,-1],"split_conditions":[2.3745916E3,1.441492E3,3.2358484E3,1E0,1.8699075E3,2E0,1E0,-3.0533854E1,-6.0358986E1,-1.8809896E1,-1.7367064E0,-2.0036562E1,2.614564E1,4.2921753E1,7.7161674E1],"split_indices":[6,6,6,4,6,2,4,0,0,0,0,0,0,0,0],"split_type":[0,0,0,0,0,0,0,0,0,0,0,0,0,0,0],"sum_hessian":[4.08E2,2.67E2,1.41E2,6.5E1,2.02E2,1.15E2,2.6E1,4E1,2.5E1,8.2E1,1.2E2,2E0,1.13E2,2E1,6E0],"tree_param":{"num_deleted":"0","num_feature":"9","num_nodes":"15","size_leaf_vector":"1"}},{"base_weights":[-4.670011E0,-3.8253363E2,4.9692676E2,-7.555374E2,-1.8454843E2,1.9024718E2,7.1944226E2,-2.8589582E1,-5.5742847E1,-5.634198E0,-2.7407932E1,1.3668195E1,-1.2405837E1,2.8418869E1,5.3570507E1],"categories":[],"categories_nodes":[],"categories_segments":[],"categories_sizes":[],"default_left":[0,0,0,0,0,0,0,0,0,0,0,0,0,0,0],"id":6,"left_children":[1,3,5,7,9,11,13,-1,-1,-1,-1,-1,-1,-1,-1],"loss_changes":[7.410881E7,1.6328946E7,1.1327612E7,4.446336E6,3.779438E6,2.6911732E6,4.548524E6,0E0,0E0,0E0,0E0,0E0,0E0,0E0,0E0],"parents":[2147483647,0,0,1,1,2,2,3,3,4,4,5,5,6,6],"right_children":[2,4,6,8,10,12,14,-1,-1,-1,-1,-1,-1,-1,-1],"split_conditions":[2.2476006E3,1.503831E3,2.658937E3,1E0,1E0,1E0,3.201171E3,-2.8589582E1,-5.5742847E1,-5.634198E0,-2.7407932E1,1.3668195E1,-1.2405837E1,2.8418869E1,5.3570507E1],"split_indices":[6,6,6,4,4,4,6,0,0,0,0,0,0,0,0],"split_type":[0,0,0,0,0,0,0,0,0,0,0,0,0,0,0],"sum_hessian":[3.89E2,2.22E2,1.67E2,7.6E1,1.46E2,7.1E1,9.6E1,5.2E1,2.4E1,1.23E2,2.3E1,6E1,1.1E1,6.9E1,2.7E1],"tree_param":{"num_deleted":"0","num_feature":"9","num_nodes":"15","size_leaf_vector":"1"}},{"base_weights":[2.4766413E1,-2.7511914E2,6.579266E2,-5.4363574E2,-6.552921E0,5.493884E2,6.815029E1,-6.605254E1,-2.3800573E1,-3.339068E0,5.635558E0,1.9598246E1,3.37021E1],"categories":[],"categories_nodes":[],"categories_segments":[],"categories_sizes":[],"default_left":[0,0,0,0,0,0,0,0,0,0,0,0,0],"id":7,"left_children":[1,3,5,7,9,11,-1,-1,-1,-1,-1,-1,-1],"loss_changes":[7.385274E7,1.9034664E7,8.817176E6,6.310684E6,9.628779E5,1.894376E6,0E0,0E0,0E0,0E0,0E0,0E0,0E0],"parents":[2147483647,0,0,1,1,2,2,3,3,4,4,5,5],"right_children":[2,4,6,8,10,12,-1,-1,-1,-1,-1,-1,-1],"split_conditions":[2.453309E3,1.8619504E3,3.374451E3,7.75747E2,2.2476006E3,2.7683584E3,6.815029E1,-6.605254E1,-2.3800573E1,-3.339068E0,5.635558E0,1.9598246E1,3.37021E1],"split_indices":[6,6,6,6,6,6,0,0,0,0,0,0,0],"split_type":[0,0,0,0,0,0,0,0,0,0,0,0,0],"sum_hessian":[3.87E2,2.63E2,1.24E2,1.31E2,1.32E2,1.09E2,1.5E1,9E0,1.22E2,8.8E1,4.4E1,5E1,5.9E1],"tree_param":{"num_deleted":"0","num_feature":"9","num_nodes":"13","size_leaf_vector":"1"}},{"base_weights":[-9.731961E0,-3.7934833E2,3.121815E2,-2.2484001E2,-9.222318E2,1.5499255E2,4.787301E2,-1.8206232E1,-4.314571E0,-3.9087116E1,-6.93236E1,8.7948065E0,-5.2564827E1,7.105486E1,2.1260956E1],"categories":[],"categories_nodes":[],"categories_segments":[],"categories_sizes":[],"default_left":[0,0,0,0,0,0,0,0,0,0,0,0,0,0,0],"id":8,"left_children":[1,3,5,7,9,11,13,-1,-1,-1,-1,-1,-1,-1,-1],"loss_changes":[4.652237E7,1.5058808E7,5.397338E6,2.7281475E6,1.524972E6,2.9334355E6,4.488846E6,0E0,0E0,0E0,0E0,0E0,0E0,0E0,0E0],"parents":[2147483647,0,0,1,1,2,2,3,3,4,4,5,5,6,6],"right_children":[2,4,6,8,10,12,14,-1,-1,-1,-1,-1,-1,-1,-1],"split_conditions":[2.082474E3,5E0,2.5876445E3,1.6826473E3,6E0,6E0,4E0,-1.8206232E1,-4.314571E0,-3.9087116E1,-6.93236E1,8.7948065E0,-5.2564827E1,7.105486E1,2.1260956E1],"split_indices":[7,0,7,7,0,0,1,0,0,0,0,0,0,0,0],"split_type":[0,0,0,0,0,0,0,0,0,0,0,0,0,0,0],"sum_hessian":[3.89E2,1.81E2,2.08E2,1.42E2,3.9E1,1.08E2,1E2,7E1,7.2E1,3.2E1,7E0,1.07E2,1E0,4E0,9.6E1],"tree_param":{"num_deleted":"0","num_feature":"9","num_nodes":"15","size_leaf_vector":"1"}},{"base_weights":[2.436768E1,-2.7472125E2,2.8899487E2,-1.4618654E2,-7.681007E2,3.182825E2,-6.457833E1,-1.7701818E1,-2.2380238E-2,-4.475905E1,-2.9695282E1,1.0058319E1,2.2390669E1],"categories":[],"categories_nodes":[],"categories_segments":[],"categories_sizes":[],"default_left":[0,0,0,0,0,0,0,0,0,0,0,0,0],"id":9,"left_children":[1,3,5,7,9,11,-1,-1,-1,-1,-1,-1,-1],"loss_changes":[3.118419E7,1.1619747E7,1.008588E7,4.483029E6,3.09544E5,3.034964E6,0E0,0E0,0E0,0E0,0E0,0E0,0E0],"parents":[2147483647,0,0,1,1,2,2,3,3,4,4,5,5],"right_children":[2,4,6,8,10,12,-1,-1,-1,-1,-1,-1,-1],"split_conditions":[2.0790046E3,5E0,6E0,1.6312921E3,1.6659901E3,3E0,-6.457833E1,-1.7701818E1,-2.2380238E-2,-4.475905E1,-2.9695282E1,1.0058319E1,2.2390669E1],"split_indices":[8,0,0,8,8,0,0,0,0,0,0,0,0],"split_type":[0,0,0,0,0,0,0,0,0,0,0,0,0],"sum_hessian":[3.92E2,1.84E2,2.08E2,1.47E2,3.7E1,2.05E2,3E0,6E1,8.7E1,1.9E1,1.8E1,1.09E2,9.6E1],"tree_param":{"num_deleted":"0","num_feature":"9","num_nodes":"13","size_leaf_vector":"1"}},{"base_weights":[-2.3576845E1,-3.7590247E2,3.051479E2,-2.3436537E2,-8.2618774E2,1.7408165E2,5.908154E2,-1.9760332E1,-3.7336519E0,-2.7705236E1,-4.3869717E1,2.9230946E1,6.090642E0,4.020074E1,2.090867E1],"categories":[],"categories_nodes":[],"categories_segments":[],"categories_sizes":[],"default_left":[0,0,0,0,0,0,0,0,0,0,0,0,0,0,0],"id":10,"left_children":[1,3,5,7,9,11,13,-1,-1,-1,-1,-1,-1,-1,-1],"loss_changes":[4.655778E7,1.217039E7,7.684954E6,3.797571E6,1.54724E5,3.01878E6,2.056248E6,0E0,0E0,0E0,0E0,0E0,0E0,0E0,0E0],"parents":[2147483647,0,0,1,1,2,2,3,3,4,4,5,5,6,6],"right_children":[2,4,6,8,10,12,14,-1,-1,-1,-1,-1,-1,-1,-1],"split_conditions":[2.082474E3,1E0,2.7507336E3,1.6826473E3,9E0,4E0,9E0,-1.9760332E1,-3.7336519E0,-2.7705236E1,-4.3869717E1,2.9230946E1,6.090642E0,4.020074E1,2.090867E1],"split_indices":[7,4,7,7,1,1,1,0,0,0,0,0,0,0,0],"split_type":[0,0,0,0,0,0,0,0,0,0,0,0,0,0,0],"sum_hessian":[4E2,1.93E2,2.07E2,1.48E2,4.5E1,1.43E2,6.4E1,7.3E1,7.5E1,9E0,3.6E1,1.5E1,1.28E2,2.7E1,3.7E1],"tree_param":{"num_deleted":"0","num_feature":"9","num_nodes":"15","size_leaf_vector":"1"}},{"base_weights":[-1.7973063E1,-3.6534097E2,2.7603497E2,-2.5216422E2,-7.500664E2,1.002697E2,4.692588E2,-2.305188E1,-8.024427E0,-2.9669188E1,-6.2931904E1,8.878549E0,-1.6737616E1,1.4414458E1,3.0546804E1],"categories":[],"categories_nodes":[],"categories_segments":[],"categories_sizes":[],"default_left":[0,0,0,0,0,0,0,0,0,0,0,0,0,0,0],"id":11,"left_children":[1,3,5,7,9,11,13,-1,-1,-1,-1,-1,-1,-1,-1],"loss_changes":[4.1667336E7,7.953212E6,7.458558E6,2.721705E6,2.599888E6,3.9938895E6,2.516E6,0E0,0E0,0E0,0E0,0E0,0E0,0E0,0E0],"parents":[2147483647,0,0,1,1,2,2,3,3,4,4,5,5,6,6],"right_children":[2,4,6,8,10,12,14,-1,-1,-1,-1,-1,-1,-1,-1],"split_conditions":[2.0091893E3,5E0,2.5876445E3,1.5040996E3,6E0,5E0,3E0,-2.305188E1,-8.024427E0,-2.9669188E1,-6.2931904E1,8.878549E0,-1.6737616E1,1.4414458E1,3.0546804E1],"split_indices":[7,0,7,7,0,0,0,0,0,0,0,0,0,0,0],"split_type":[0,0,0,0,0,0,0,0,0,0,0,0,0,0,0],"sum_hessian":[4.06E2,1.86E2,2.2E2,1.45E2,4.1E1,1.16E2,1.04E2,4.3E1,1.02E2,3.3E1,8E0,9.9E1,1.7E1,4.7E1,5.7E1],"tree_param":{"num_deleted":"0","num_feature":"9","num_nodes":"15","size_leaf_vector":"1"}},{"base_weights":[-6.1320033E0,-2.2532994E2,4.8102695E2,-7.342549E2,-1.3759686E2,4.0258798E2,1.0775702E3,-6.095063E1,-2.9273527E1,-1.3341087E1,-1.7074986E0,2.628075E0,2.2573847E1,2.4975576E1,6.005183E1],"categories":[],"categories_nodes":[],"categories_segments":[],"categories_sizes":[],"default_left":[0,0,0,0,0,0,0,0,0,0,0,0,0,0,0],"id":12,"left_children":[1,3,5,7,9,11,13,-1,-1,-1,-1,-1,-1,-1,-1],"loss_changes":[4.025926E7,1.1507855E7,5.04087E6,2.02703E6,2.9719325E6,1.773076E6,3.2789E5,0E0,0E0,0E0,0E0,0E0,0E0,0E0,0E0],"parents":[2147483647,0,0,1,1,2,2,3,3,4,4,5,5,6,6],"right_children":[2,4,6,8,10,12,14,-1,-1,-1,-1,-1,-1,-1,-1],"split_conditions":[2.469304E3,1.261978E3,3.501314E3,6.670945E2,1.8699075E3,1E0,2E0,-6.095063E1,-2.9273527E1,-1.3341087E1,-1.7074986E0,2.628075E0,2.2573847E1,2.4975576E1,6.005183E1],"split_indices":[6,6,6,6,6,0,0,0,0,0,0,0,0,0,0],"split_type":[0,0,0,0,0,0,0,0,0,0,0,0,0,0,0],"sum_hessian":[3.75E2,2.59E2,1.16E2,3.7E1,2.22E2,1.04E2,1.2E1,7E0,3E1,9.8E1,1.24E2,1.3E1,9.1E1,3E0,9E0],"tree_param":{"num_deleted":"0","num_feature":"9","num_nodes":"15","size_leaf_vector":"1"}},{"base_weights":[1.9157066E0,-3.245027E2,4.06132E2,-5.7135236E2,-1.7764618E2,2.3932271E2,8.0836017E2,-5.658259E1,-2.415737E1,-3.9444828E0,-1.4807795E1,1.2872864E1,-4.9327385E1,7.7125053E0,4.3880566E1],"categories":[],"categories_nodes":[],"categories_segments":[],"categories_sizes":[],"default_left":[0,0,0,0,0,0,0,0,0,0,0,0,0,0,0],"id":13,"left_children":[1,3,5,7,9,11,13,-1,-1,-1,-1,-1,-1,-1,-1],"loss_changes":[5.0798144E7,7.620064E6,1.134695E7,3.35752E6,1.5566235E6,2.988362E6,2.12952E6,0E0,0E0,0E0,0E0,0E0,0E0,0E0,0E0],"parents":[2147483647,0,0,1,1,2,2,3,3,4,4,5,5,6,6],"right_children":[2,4,6,8,10,12,14,-1,-1,-1,-1,-1,-1,-1,-1],"split_conditions":[2.253641E3,1.503831E3,3.0225205E3,7.75747E2,3E0,6E0,1E0,-5.658259E1,-2.415737E1,-3.9444828E0,-1.4807795E1,1.2872864E1,-4.9327385E1,7.7125053E0,4.3880566E1],"split_indices":[6,6,6,6,0,0,0,0,0,0,0,0,0,0,0],"split_type":[0,0,0,0,0,0,0,0,0,0,0,0,0,0,0],"sum_hessian":[3.83E2,2.12E2,1.71E2,7.8E1,1.34E2,1.22E2,4.9E1,9E0,6.9E1,7.4E1,6E1,1.21E2,1E0,5E0,4.4E1],"tree_param":{"num_deleted":"0","num_feature":"9","num_nodes":"15","size_leaf_vector":"1"}},{"base_weights":[-3.053923E1,-2.4062167E2,4.70555E2,-1.3504726E2,-6.745342E2,3.9484824E2,8.4397644E2,-1.182203E1,6.93848E0,-2.7741653E1,-5.923957E1,-5.929556E0,2.1539732E1,3.0521452E1,7.543926E1],"categories":[],"categories_nodes":[],"categories_segments":[],"categories_sizes":[],"default_left":[0,0,0,0,0,0,0,0,0,0,0,0,0,0,0],"id":14,"left_children":[1,3,5,7,9,11,13,-1,-1,-1,-1,-1,-1,-1,-1],"loss_changes":[3.99057E7,1.2140191E7,2.833056E6,6.029663E6,2.518712E6,1.804435E6,1.873752E6,0E0,0E0,0E0,0E0,0E0,0E0,0E0,0E0],"parents":[2147483647,0,0,1,1,2,2,3,3,4,4,5,5,6,6],"right_children":[2,4,6,8,10,12,14,-1,-1,-1,-1,-1,-1,-1,-1],"split_conditions":[2.469304E3,5E0,3.285654E3,2.137348E3,6E0,1E0,5E0,-1.182203E1,6.93848E0,-2.7741653E1,-5.923957E1,-5.929556E0,2.1539732E1,3.0521452E1,7.543926E1],"split_indices":[6,0,6,6,0,0,0,0,0,0,0,0,0,0,0],"split_type":[0,0,0,0,0,0,0,0,0,0,0,0,0,0,0],"sum_hessian":[3.77E2,2.66E2,1.11E2,2.15E2,5.1E1,9.4E1,1.7E1,1.57E2,5.8E1,4.3E1,8E0,6E0,8.8E1,1.4E1,3E0],"tree_param":{"num_deleted":"0","num_feature":"9","num_nodes":"15","size_leaf_vector":"1"}},{"base_weights":[-7.363691E0,-2.0465254E2,4.1314832E2,-5.3166455E2,-9.2922066E1,2.6436E2,6.6186707E2,-3.4951843E1,-1.9079397E1,-2.674182E0,-2.0857536E1,1.1764277E1,4.5639626E1,2.7496677E1,4.619282E1],"categories":[],"categories_nodes":[],"categories_segments":[],"categories_sizes":[],"default_left":[0,0,0,0,0,0,0,0,0,0,0,0,0,0,0],"id":15,"left_children":[1,3,5,7,9,11,13,-1,-1,-1,-1,-1,-1,-1,-1],"loss_changes":[3.16932E7,9.450269E6,4.339816E6,1.39109E6,2.4711675E6,1.2557525E6,8.11582E5,0E0,0E0,0E0,0E0,0E0,0E0,0E0,0E0],"parents":[2147483647,0,0,1,1,2,2,3,3,4,4,5,5,6,6],"right_children":[2,4,6,8,10,12,14,-1,-1,-1,-1,-1,-1,-1,-1],"split_conditions":[2.453309E3,1.467841E3,3.0225205E3,1.1855024E3,1E0,3.1102498E3,3.501314E3,-3.4951843E1,-1.9079397E1,-2.674182E0,-2.0857536E1,1.1764277E1,4.5639626E1,2.7496677E1,4.619282E1],"split_indices":[6,6,6,6,4,7,6,0,0,0,0,0,0,0,0],"split_type":[0,0,0,0,0,0,0,0,0,0,0,0,0,0,0],"sum_hessian":[3.8E2,2.59E2,1.21E2,6.5E1,1.94E2,7.7E1,4.4E1,2.9E1,3.6E1,1.74E2,2E1,7.5E1,2E0,3.3E1,1.1E1],"tree_param":{"num_deleted":"0","num_feature":"9","num_nodes":"15","size_leaf_vector":"1"}},{"base_weights":[-6.7587786E0,-2.2833661E2,4.3125644E2,-5.862667E2,-1.1402535E2,3.2242444E2,8.264271E2,-4.5668823E1,-2.4375893E1,-3.4923103E0,-2.1876501E1,-7.981794E0,1.8539598E1,3.3355263E1,5.931659E1],"categories":[],"categories_nodes":[],"categories_segments":[],"categories_sizes":[],"default_left":[0,0,0,0,0,0,0,0,0,0,0,0,0,0,0],"id":16,"left_children":[1,3,5,7,9,11,13,-1,-1,-1,-1,-1,-1,-1,-1],"loss_changes":[3.697917E7,1.0284758E7,5.238464E6,1.525116E6,2.7278268E6,2.437429E6,7.56792E5,0E0,0E0,0E0,0E0,0E0,0E0,0E0,0E0],"parents":[2147483647,0,0,1,1,2,2,3,3,4,4,5,5,6,6],"right_children":[2,4,6,8,10,12,14,-1,-1,-1,-1,-1,-1,-1,-1],"split_conditions":[2.453309E3,1.441492E3,3.2358484E3,8.222545E2,5E0,1E0,5E0,-4.5668823E1,-2.4375893E1,-3.4923103E0,-2.1876501E1,-7.981794E0,1.8539598E1,3.3355263E1,5.931659E1],"split_indices":[6,6,6,6,0,0,0,0,0,0,0,0,0,0,0],"split_type":[0,0,0,0,0,0,0,0,0,0,0,0,0,0,0],"sum_hessian":[3.79E2,2.52E2,1.27E2,6E1,1.92E2,1.01E2,2.6E1,1.2E1,4.8E1,1.7E2,2.2E1,9E0,9.2E1,2E1,6E0],"tree_param":{"num_deleted":"0","num_feature":"9","num_nodes":"15","size_leaf_vector":"1"}},{"base_weights":[-3.8173258E0,-2.8701733E2,2.3149721E2,-1.9501791E2,-5.742401E2,4.926423E2,1.4176279E2,-1.3904231E1,-4.4985204E0,-1.8513676E1,-3.2421516E1,1.6062063E1,3.4366875E1,4.073623E0,1.5945159E1],"categories":[],"categories_nodes":[],"categories_segments":[],"categories_sizes":[],"default_left":[0,0,0,0,0,0,0,0,0,0,0,0,0,0,0],"id":17,"left_children":[1,3,5,7,9,11,13,-1,-1,-1,-1,-1,-1,-1,-1],"loss_changes":[2.452372E7,4.300877E6,4.640336E6,1.0919025E6,3.65197E5,1.481119E6,1.5866752E6,0E0,0E0,0E0,0E0,0E0,0E0,0E0,0E0],"parents":[2147483647,0,0,1,1,2,2,3,3,4,4,5,5,6,6],"right_children":[2,4,6,8,10,12,14,-1,-1,-1,-1,-1,-1,-1,-1],"split_conditions":[2.0091893E3,1E0,9E0,1.7226384E3,1.3E1,2.7281145E3,2.7507336E3,-1.3904231E1,-4.4985204E0,-1.8513676E1,-3.2421516E1,1.6062063E1,3.4366875E1,4.073623E0,1.5945159E1],"split_indices":[7,4,1,7,1,7,7,0,0,0,0,0,0,0,0],"split_type":[0,0,0,0,0,0,0,0,0,0,0,0,0,0,0],"sum_hessian":[3.66E2,1.66E2,2E2,1.27E2,3.9E1,5E1,1.5E2,7E1,5.7E1,1.2E1,2.7E1,2.8E1,2.2E1,1.13E2,3.7E1],"tree_param":{"num_deleted":"0","num_feature":"9","num_nodes":"15","size_leaf_vector":"1"}},{"base_weights":[7.2780795E0,-2.4484581E2,3.3499365E2,-1.4592871E2,-6.102202E2,2.815205E2,7.411973E2,-1.2417353E1,-3.4173903E-1,-3.9564545E1,-1.5235654E1,6.042258E0,1.8071589E1,-5.336676E0,3.9867702E1],"categories":[],"categories_nodes":[],"categories_segments":[],"categories_sizes":[],"default_left":[0,0,0,0,0,0,0,0,0,0,0,0,0,0,0],"id":18,"left_children":[1,3,5,7,9,11,13,-1,-1,-1,-1,-1,-1,-1,-1],"loss_changes":[3.0405368E7,7.428441E6,3.266698E6,2.3488542E6,2.192893E6,1.79241E6,9.4221E5,0E0,0E0,0E0,0E0,0E0,0E0,0E0,0E0],"parents":[2147483647,0,0,1,1,2,2,3,3,4,4,5,5,6,6],"right_children":[2,4,6,8,10,12,14,-1,-1,-1,-1,-1,-1,-1,-1],"split_conditions":[2.2476006E3,1E0,3.374451E3,1.8619504E3,1.503831E3,2.55087E3,2.261195E3,-1.2417353E1,-3.4173903E-1,-3.9564545E1,-1.5235654E1,6.042258E0,1.8071589E1,-5.336676E0,3.9867702E1],"split_indices":[6,4,6,6,6,6,7,0,0,0,0,0,0,0,0],"split_type":[0,0,0,0,0,0,0,0,0,0,0,0,0,0,0],"sum_hessian":[3.66E2,2.07E2,1.59E2,1.64E2,4.3E1,1.42E2,1.7E1,9.4E1,7E1,2.6E1,1.7E1,4.8E1,9.4E1,1E0,1.6E1],"tree_param":{"num_deleted":"0","num_feature":"9","num_nodes":"15","size_leaf_vector":"1"}},{"base_weights":[4.761985E0,-1.5537025E2,4.152395E2,-5.144826E2,-7.0010254E1,-7.6206314E1,4.7619418E2,-4.8298252E1,-2.1896154E1,-1.1450902E0,-1.79653E1,-1.2402067E1,1.8621641E1,2.117894E1,4.2691334E1],"categories":[],"categories_nodes":[],"categories_segments":[],"categories_sizes":[],"default_left":[0,0,0,0,0,0,0,0,0,0,0,0,0,0,0],"id":19,"left_children":[1,3,5,7,9,11,13,-1,-1,-1,-1,-1,-1,-1,-1],"loss_changes":[2.5765214E7,8.608361E6,3.331438E6,1.443508E6,3.1126462E6,1.0945735E6,1.585528E6,0E0,0E0,0E0,0E0,0E0,0E0,0E0,0E0],"parents":[2147483647,0,0,1,1,2,2,3,3,4,4,5,5,6,6],"right_children":[2,4,6,8,10,12,14,-1,-1,-1,-1,-1,-1,-1,-1],"split_conditions":[2.55087E3,1.418578E3,1E0,8.222545E2,5E0,3.201171E3,3.501314E3,-4.8298252E1,-2.1896154E1,-1.1450902E0,-1.79653E1,-1.2402067E1,1.8621641E1,2.117894E1,4.2691334E1],"split_indices":[6,6,0,6,0,6,6,0,0,0,0,0,0,0,0],"split_type":[0,0,0,0,0,0,0,0,0,0,0,0,0,0,0],"sum_hessian":[3.9E2,2.81E2,1.09E2,5.3E1,2.28E2,1.2E1,9.7E1,6E0,4.7E1,1.97E2,3.1E1,9E0,3E0,8.7E1,1E1],"tree_param":{"num_deleted":"0","num_feature":"9","num_nodes":"15","size_leaf_vector":"1"}},{"base_weights":[-1.865092E1,-1.8334239E2,2.4453847E2,-1.5170093E2,-4.857931E1,7.5837805E2,2.1386766E2,-1.4326373E1,-3.0685918E0,4.6082264E1,-9.612311E0,9.165763E0,2.9941397E1],"categories":[],"categories_nodes":[],"categories_segments":[],"categories_sizes":[],"default_left":[0,0,0,0,0,0,0,0,0,0,0,0,0],"id":20,"left_children":[1,3,5,7,-1,9,11,-1,-1,-1,-1,-1,-1],"loss_changes":[1.6776021E7,5.7886135E6,2.18603E6,2.7835305E6,0E0,1.4188285E6,1.5603535E6,0E0,0E0,0E0,0E0,0E0,0E0],"parents":[2147483647,0,0,1,1,2,2,3,3,5,5,6,6],"right_children":[2,4,6,8,-1,10,12,-1,-1,-1,-1,-1,-1],"split_conditions":[2.3246753E3,6E0,3E0,1.6850914E3,-4.857931E1,3E0,3.126318E3,-1.4326373E1,-3.0685918E0,4.6082264E1,-9.612311E0,9.165763E0,2.9941397E1],"split_indices":[7,0,2,7,0,0,7,0,0,0,0,0,0],"split_type":[0,0,0,0,0,0,0,0,0,0,0,0,0],"sum_hessian":[3.85E2,2.37E2,1.48E2,2.29E2,8E0,7E0,1.41E2,9.1E1,1.38E2,6E0,1E0,1.32E2,9E0],"tree_param":{"num_deleted":"0","num_feature":"9","num_nodes":"13","size_leaf_vector":"1"}},{"base_weights":[7.0725355E0,-1.7941891E2,3.390036E2,-3.9493253E2,-8.177822E1,1.641331E2,5.1402747E2,-1.4939387E1,-3.1304169E1,-9.594222E0,-1.0321132E0,-2.2771154E1,9.417038E0,2.1497717E1,4.6293926E1],"categories":[],"categories_nodes":[],"categories_segments":[],"categories_sizes":[],"default_left":[0,0,0,0,0,0,0,0,0,0,0,0,0,0,0],"id":21,"left_children":[1,3,5,7,9,11,13,-1,-1,-1,-1,-1,-1,-1,-1],"loss_changes":[2.4264626E7,5.2494705E6,4.231148E6,1.546402E6,1.1673114E6,1.1656306E6,2.025708E6,0E0,0E0,0E0,0E0,0E0,0E0,0E0,0E0],"parents":[2147483647,0,0,1,1,2,2,3,3,4,4,5,5,6,6],"right_children":[2,4,6,8,10,12,14,-1,-1,-1,-1,-1,-1,-1,-1],"split_conditions":[2.360515E3,1.5392085E3,2.781688E3,1E0,1.8699075E3,2E0,3.535653E3,-1.4939387E1,-3.1304169E1,-9.594222E0,-1.0321132E0,-2.2771154E1,9.417038E0,2.1497717E1,4.6293926E1],"split_indices":[6,6,6,4,6,2,6,0,0,0,0,0,0,0,0],"split_type":[0,0,0,0,0,0,0,0,0,0,0,0,0,0,0],"sum_hessian":[3.9E2,2.5E2,1.4E2,7.7E1,1.73E2,7.1E1,6.9E1,5.6E1,2.1E1,6.1E1,1.12E2,2E0,6.9E1,5.9E1,1E1],"tree_param":{"num_deleted":"0","num_feature":"9","num_nodes":"15","size_leaf_vector":"1"}},{"base_weights":[1.502184E0,-1.6224875E2,2.681405E2,-5.126642E2,-1.11896324E2,1.1909152E2,3.8028387E2,-1.681974E1,-3.2293762E1,-3.8998814E0,-1.659368E1,2.1335695E1,2.7700875E0,1.7585104E1,5.1737923E1],"categories":[],"categories_nodes":[],"categories_segments":[],"categories_sizes":[],"default_left":[0,0,0,0,0,0,0,0,0,0,0,0,0,0,0],"id":22,"left_children":[1,3,5,7,9,11,13,-1,-1,-1,-1,-1,-1,-1,-1],"loss_changes":[1.6984468E7,4.194902E6,2.42851E6,4.871615E5,1.554987E6,1.249865E6,1.207382E6,0E0,0E0,0E0,0E0,0E0,0E0,0E0,0E0],"parents":[2147483647,0,0,1,1,2,2,3,3,4,4,5,5,6,6],"right_children":[2,4,6,8,10,12,14,-1,-1,-1,-1,-1,-1,-1,-1],"split_conditions":[2.3745916E3,1.200385E3,2.74685E3,4E0,5E0,2.41695E3,3E1,-1.681974E1,-3.2293762E1,-3.8998814E0,-1.659368E1,2.1335695E1,2.7700875E0,1.7585104E1,5.1737923E1],"split_indices":[6,6,6,0,0,6,1,0,0,0,0,0,0,0,0],"split_type":[0,0,0,0,0,0,0,0,0,0,0,0,0,0,0],"sum_hessian":[3.87E2,2.4E2,1.47E2,2.9E1,2.11E2,6.4E1,8.3E1,1.4E1,1.5E1,1.84E2,2.7E1,1E1,5.4E1,8.1E1,2E0],"tree_param":{"num_deleted":"0","num_feature":"9","num_nodes":"15","size_leaf_vector":"1"}},{"base_weights":[-6.422246E1,-1.6952988E2,2.6166333E2,-5.266169E2,-1.3105583E2,1.768314E2,5.196893E2,-3.60826E1,-2.032576E1,-1.071471E1,-3.2702389E0,-1.3506601E1,1.0400651E1,5.5183796E1,2.0305342E1],"categories":[],"categories_nodes":[],"categories_segments":[],"categories_sizes":[],"default_left":[0,0,0,0,0,0,0,0,0,0,0,0,0,0,0],"id":23,"left_children":[1,3,5,7,9,11,13,-1,-1,-1,-1,-1,-1,-1,-1],"loss_changes":[1.2776409E7,3.7915255E6,1.899987E6,3.390865E5,1.379479E6,1.03178325E6,1.011064E6,0E0,0E0,0E0,0E0,0E0,0E0,0E0,0E0],"parents":[2147483647,0,0,1,1,2,2,3,3,4,4,5,5,6,6],"right_children":[2,4,6,8,10,12,14,-1,-1,-1,-1,-1,-1,-1,-1],"split_conditions":[2.55087E3,1.1855024E3,3.1891194E3,6.670945E2,1.8699075E3,3E0,4E0,-3.60826E1,-2.032576E1,-1.071471E1,-3.2702389E0,-1.3506601E1,1.0400651E1,5.5183796E1,2.0305342E1],"split_indices":[6,6,6,6,6,1,1,0,0,0,0,0,0,0,0],"split_type":[0,0,0,0,0,0,0,0,0,0,0,0,0,0,0],"sum_hessian":[3.7E2,2.8E2,9E1,2.6E1,2.54E2,6.9E1,2.1E1,8E0,1.8E1,1.11E2,1.43E2,4E0,6.5E1,2E0,1.9E1],"tree_param":{"num_deleted":"0","num_feature":"9","num_nodes":"15","size_leaf_vector":"1"}},{"base_weights":[-1.3125034E1,-1.5936746E2,1.9587425E2,-8.9461136E1,-4.0924103E2,4.5096317E1,1.8132059E2,4.7811084E0,-7.0483637E0,9.364927E0,-2.1899946E1,2.3021805E1,7.233143E0],"categories":[],"categories_nodes":[],"categories_segments":[],"categories_sizes":[],"default_left":[0,0,0,0,0,0,0,0,0,0,0,0,0],"id":24,"left_children":[1,3,5,7,9,-1,11,-1,-1,-1,-1,-1,-1],"loss_changes":[1.1951396E7,3.9809695E6,1.4908395E6,1.7389389E6,9.39796E5,0E0,1.560239E6,0E0,0E0,0E0,0E0,0E0,0E0],"parents":[2147483647,0,0,1,1,2,2,3,3,4,4,6,6],"right_children":[2,4,6,8,10,-1,12,-1,-1,-1,-1,-1,-1],"split_conditions":[2.3246753E3,1E0,2.3554897E3,8E0,2E0,4.5096317E1,4E0,4.7811084E0,-7.0483637E0,9.364927E0,-2.1899946E1,2.3021805E1,7.233143E0],"split_indices":[7,4,7,1,1,0,1,0,0,0,0,0,0],"split_type":[0,0,0,0,0,0,0,0,0,0,0,0,0],"sum_hessian":[3.89E2,2.29E2,1.6E2,1.8E2,4.9E1,2E0,1.58E2,3.9E1,1.41E2,2E0,4.7E1,1.7E1,1.41E2],"tree_param":{"num_deleted":"0","num_feature":"9","num_nodes":"13","size_leaf_vector":"1"}},{"base_weights":[1.5844322E1,-1.3695961E2,2.2198555E2,1.4760265E1,-2.7065112E2,3.9499948E2,1.484799E2,-4.759832E0,1.0412161E1,-1.1280871E1,-4.2801647E1,4.1140774E1,1.7409681E1,7.468919E-1,1.4564697E1],"categories":[],"categories_nodes":[],"categories_segments":[],"categories_sizes":[],"default_left":[0,0,0,0,0,0,0,0,0,0,0,0,0,0,0],"id":25,"left_children":[1,3,5,7,9,11,13,-1,-1,-1,-1,-1,-1,-1,-1],"loss_changes":[1.2063094E7,4.4664005E6,2.0143025E6,2.2324018E6,2.891206E6,6.74667E5,2.2079638E6,0E0,0E0,0E0,0E0,0E0,0E0,0E0,0E0],"parents":[2147483647,0,0,1,1,2,2,3,3,4,4,5,5,6,6],"right_children":[2,4,6,8,10,12,14,-1,-1,-1,-1,-1,-1,-1,-1],"split_conditions":[2.3223628E3,3E0,2.5439678E3,2E0,6E0,2.3554897E3,2.7507336E3,-4.759832E0,1.0412161E1,-1.1280871E1,-4.2801647E1,4.1140774E1,1.7409681E1,7.468919E-1,1.4564697E1],"split_indices":[7,0,8,0,0,7,7,0,0,0,0,0,0,0,0],"split_type":[0,0,0,0,0,0,0,0,0,0,0,0,0,0,0],"sum_hessian":[3.81E2,2.19E2,1.62E2,1.03E2,1.16E2,4.7E1,1.15E2,6.6E1,3.7E1,1.09E2,7E0,3E0,4.4E1,6E1,5.5E1],"tree_param":{"num_deleted":"0","num_feature":"9","num_nodes":"15","size_leaf_vector":"1"}},{"base_weights":[-1.7632774E1,-1.3739453E2,3.5181635E2,-5.582179E2,-9.134501E1,6.883931E2,2.7067456E2,-3.9159264E1,-2.0891167E1,-2.788918E0,-1.5594437E1,5.393631E1,1.7096668E1,-1.1055587E1,1.685315E1],"categories":[],"categories_nodes":[],"categories_segments":[],"categories_sizes":[],"default_left":[0,0,0,0,0,0,0,0,0,0,0,0,0,0,0],"id":26,"left_children":[1,3,5,7,9,11,13,-1,-1,-1,-1,-1,-1,-1,-1],"loss_changes":[1.7348476E7,5.6851095E6,2.43547E6,5.88708E5,2.084796E6,2.065372E6,2.653793E6,0E0,0E0,0E0,0E0,0E0,0E0,0E0,0E0],"parents":[2147483647,0,0,1,1,2,2,3,3,4,4,5,5,6,6],"right_children":[2,4,6,8,10,12,14,-1,-1,-1,-1,-1,-1,-1,-1],"split_conditions":[2.658937E3,1.1855024E3,4E0,8.222545E2,5E0,3E0,1E0,-3.9159264E1,-2.0891167E1,-2.788918E0,-1.5594437E1,5.393631E1,1.7096668E1,-1.1055587E1,1.685315E1],"split_indices":[6,6,1,6,0,0,0,0,0,0,0,0,0,0,0],"split_type":[0,0,0,0,0,0,0,0,0,0,0,0,0,0,0],"sum_hessian":[3.9E2,2.95E2,9.5E1,2.8E1,2.67E2,1.7E1,7.8E1,9E0,1.9E1,2.31E2,3.6E1,7E0,1E1,9E0,6.9E1],"tree_param":{"num_deleted":"0","num_feature":"9","num_nodes":"15","size_leaf_vector":"1"}},{"base_weights":[3.0837841E1,-1.5182912E2,2.2814894E2,-3.4994025E2,-6.844612E1,1.5740044E2,4.325297E2,-3.1801924E1,-1.428609E1,5.016746E0,-5.727559E0,6.8714366E0,3.9854404E1,1.7580069E1,4.634698E1],"categories":[],"categories_nodes":[],"categories_segments":[],"categories_sizes":[],"default_left":[0,0,0,0,0,0,0,0,0,0,0,0,0,0,0],"id":27,"left_children":[1,3,5,7,9,11,13,-1,-1,-1,-1,-1,-1,-1,-1],"loss_changes":[1.3874853E7,3.2798675E6,2.606952E6,9.02264E5,1.1164892E6,1.6662725E6,1.554639E6,0E0,0E0,0E0,0E0,0E0,0E0,0E0,0E0],"parents":[2147483647,0,0,1,1,2,2,3,3,4,4,5,5,6,6],"right_children":[2,4,6,8,10,12,14,-1,-1,-1,-1,-1,-1,-1,-1],"split_conditions":[2.137348E3,1.441492E3,3.0225205E3,8.222545E2,8E0,3.1102498E3,2.5E1,-3.1801924E1,-1.428609E1,5.016746E0,-5.727559E0,6.8714366E0,3.9854404E1,1.7580069E1,4.634698E1],"split_indices":[6,6,6,6,1,7,1,0,0,0,0,0,0,0,0],"split_type":[0,0,0,0,0,0,0,0,0,0,0,0,0,0,0],"sum_hessian":[3.83E2,1.99E2,1.84E2,5.8E1,1.41E2,1.38E2,4.6E1,9E0,4.9E1,3E1,1.11E2,1.35E2,3E0,4.1E1,5E0],"tree_param":{"num_deleted":"0","num_feature":"9","num_nodes":"15","size_leaf_vector":"1"}},{"base_weights":[-1.7093039E1,-1.5873218E2,1.3189731E2,-3.114219E2,-9.035327E1,8.755345E1,5.630811E2,-3.3903072E1,-1.3046623E1,1.8719627E1,-4.980034E0,4.891505E0,-4.3285294E1,-7.8390627E0,3.0732422E1],"categories":[],"categories_nodes":[],"categories_segments":[],"categories_sizes":[],"default_left":[0,0,0,0,0,0,0,0,0,0,0,0,0,0,0],"id":28,"left_children":[1,3,5,7,9,11,13,-1,-1,-1,-1,-1,-1,-1,-1],"loss_changes":[8.440979E6,2.112217E6,3.679169E6,9.89292E5,6.518599E5,1.828434E6,7.645495E5,0E0,0E0,0E0,0E0,0E0,0E0,0E0,0E0],"parents":[2147483647,0,0,1,1,2,2,3,3,4,4,5,5,6,6],"right_children":[2,4,6,8,10,12,14,-1,-1,-1,-1,-1,-1,-1,-1],"split_conditions":[2.137348E3,1.441492E3,3.374451E3,7.75747E2,1.449717E3,6E0,2.261195E3,-3.3903072E1,-1.3046623E1,1.8719627E1,-4.980034E0,4.891505E0,-4.3285294E1,-7.8390627E0,3.0732422E1],"split_indices":[6,6,6,6,6,0,7,0,0,0,0,0,0,0,0],"split_type":[0,0,0,0,0,0,0,0,0,0,0,0,0,0,0],"sum_hessian":[3.98E2,2.04E2,1.94E2,6.2E1,1.42E2,1.77E2,1.7E1,6E0,5.6E1,2E0,1.4E2,1.76E2,1E0,1E0,1.6E1],"tree_param":{"num_deleted":"0","num_feature":"9","num_nodes":"15","size_leaf_vector":"1"}},{"base_weights":[3.7685623E0,-1.0674623E2,2.7554126E2,-2.8770963E2,-3.288544E1,4.5781015E2,1.535505E2,-1.5202097E1,2.4655247E1,-5.438659E0,-1.5253049E-1,-4.742878E0,2.9163008E1,-4.013598E0,1.1062062E1],"categories":[],"categories_nodes":[],"categories_segments":[],"categories_sizes":[],"default_left":[0,0,0,0,0,0,0,0,0,0,0,0,0,0,0],"id":29,"left_children":[1,3,5,7,9,11,13,-1,-1,-1,-1,-1,-1,-1,-1],"loss_changes":[1.1532782E7,3.6394835E6,2.3978E6,1.1573715E6,4.4116725E5,3.105942E6,1.0940372E6,0E0,0E0,0E0,0E0,0E0,0E0,0E0,0E0],"parents":[2147483647,0,0,1,1,2,2,3,3,4,4,5,5,6,6],"right_children":[2,4,6,8,10,12,14,-1,-1,-1,-1,-1,-1,-1,-1],"split_conditions":[2.540028E3,1.5265525E3,9E0,2.2799946E3,1.8699075E3,3E0,1.3E1,-1.5202097E1,2.4655247E1,-5.438659E0,-1.5253049E-1,-4.742878E0,2.9163008E1,-4.013598E0,1.1062062E1],"split_indices":[6,6,1,7,6,1,1,0,0,0,0,0,0,0,0],"split_type":[0,0,0,0,0,0,0,0,0,0,0,0,0,0,0],"sum_hessian":[3.82E2,2.72E2,1.1E2,7.8E1,1.94E2,4.3E1,6.7E1,7.7E1,1E0,5.4E1,1.4E2,8E0,3.5E1,1.5E1,5.2E1],"tree_param":{"num_deleted":"0","num_feature":"9","num_nodes":"15","size_leaf_vector":"1"}},{"base_weights":[-1.2067494E1,-1.4389882E2,2.3096501E2,-9.566689E1,-3.377879E2,1.6913925E2,4.955418E2,-8.233356E0,-1.0468628E0,-3.0127537E1,-1.3335329E1,1.0858442E1,-1.6210597E0,-8.372162E0,2.6437948E1],"categories":[],"categories_nodes":[],"categories_segments":[],"categories_sizes":[],"default_left":[0,0,0,0,0,0,0,0,0,0,0,0,0,0,0],"id":30,"left_children":[1,3,5,7,9,11,13,-1,-1,-1,-1,-1,-1,-1,-1],"loss_changes":[1.2752837E7,2.380409E6,2.206257E6,1.0690758E6,7.99101E5,1.12034E6,6.611205E5,0E0,0E0,0E0,0E0,0E0,0E0,0E0,0E0],"parents":[2147483647,0,0,1,1,2,2,3,3,4,4,5,5,6,6],"right_children":[2,4,6,8,10,12,14,-1,-1,-1,-1,-1,-1,-1,-1],"split_conditions":[2.360515E3,1E0,3.285654E3,1.8699075E3,1.057459E3,1E0,2.261195E3,-8.233356E0,-1.0468628E0,-3.0127537E1,-1.3335329E1,1.0858442E1,-1.6210597E0,-8.372162E0,2.6437948E1],"split_indices":[6,4,6,6,6,4,7,0,0,0,0,0,0,0,0],"split_type":[0,0,0,0,0,0,0,0,0,0,0,0,0,0,0],"sum_hessian":[3.96E2,2.57E2,1.39E2,2.07E2,5E1,1.14E2,2.5E1,1.07E2,1E2,9E0,4.1E1,9.2E1,2.2E1,1E0,2.4E1],"tree_param":{"num_deleted":"0","num_feature":"9","num_nodes":"15","size_leaf_vector":"1"}},{"base_weights":[-1.2651516E1,-1.5146814E2,1.6543481E2,-3.8732077E2,-1.20294E2,1.7639214E2,-4.215882E1,-2.9131037E1,-1.3950149E1,1.095075E0,-7.12154E0,5.875478E0,1.786773E1],"categories":[],"categories_nodes":[],"categories_segments":[],"categories_sizes":[],"default_left":[0,0,0,0,0,0,0,0,0,0,0,0,0],"id":31,"left_children":[1,3,5,7,9,11,-1,-1,-1,-1,-1,-1,-1],"loss_changes":[9.592217E6,1.5562535E6,2.027515E6,3.663085E5,6.13784E5,1.7587935E6,0E0,0E0,0E0,0E0,0E0,0E0,0E0],"parents":[2147483647,0,0,1,1,2,2,3,3,4,4,5,5],"right_children":[2,4,6,8,10,12,-1,-1,-1,-1,-1,-1,-1],"split_conditions":[2.253641E3,1.1855024E3,6E0,7.75747E2,7E0,3.048634E3,-4.215882E1,-2.9131037E1,-1.3950149E1,1.095075E0,-7.12154E0,5.875478E0,1.786773E1],"split_indices":[6,6,0,6,1,6,0,0,0,0,0,0,0],"split_type":[0,0,0,0,0,0,0,0,0,0,0,0,0],"sum_hessian":[3.86E2,2.17E2,1.69E2,2.4E1,1.93E2,1.68E2,1E0,7E0,1.7E1,2.6E1,1.67E2,1.28E2,4E1],"tree_param":{"num_deleted":"0","num_feature":"9","num_nodes":"13","size_leaf_vector":"1"}},{"base_weights":[-1.5650842E1,-1.08025566E2,1.2211827E2,-4.3661633E1,-3.1319632E2,2.5193819E1,2.103555E2,-1.0968243E1,-5.286309E-1,-1.2100081E1,-3.2509563E1,2.1910172E1,-1.1883023E0,8.811659E0,4.1157597E1],"categories":[],"categories_nodes":[],"categories_segments":[],"categories_sizes":[],"default_left":[0,0,0,0,0,0,0,0,0,0,0,0,0,0,0],"id":32,"left_children":[1,3,5,7,9,11,13,-1,-1,-1,-1,-1,-1,-1,-1],"loss_changes":[4.9128495E6,3.0368188E6,1.3203138E6,1.0267314E6,1.1622265E6,1.5269815E6,1.5486462E6,0E0,0E0,0E0,0E0,0E0,0E0,0E0,0E0],"parents":[2147483647,0,0,1,1,2,2,3,3,4,4,5,5,6,6],"right_children":[2,4,6,8,10,12,14,-1,-1,-1,-1,-1,-1,-1,-1],"split_conditions":[2.3246753E3,5E0,3E0,1.4136213E3,6E0,4E0,3E1,-1.0968243E1,-5.286309E-1,-1.2100081E1,-3.2509563E1,2.1910172E1,-1.1883023E0,8.811659E0,4.1157597E1],"split_indices":[7,0,0,7,0,1,1,0,0,0,0,0,0,0,0],"split_type":[0,0,0,0,0,0,0,0,0,0,0,0,0,0,0],"sum_hessian":[3.84E2,2.3E2,1.54E2,1.76E2,5.4E1,7.4E1,8E1,2.7E1,1.49E2,4.6E1,8E0,7E0,6.7E1,7.7E1,3E0],"tree_param":{"num_deleted":"0","num_feature":"9","num_nodes":"15","size_leaf_vector":"1"}},{"base_weights":[1.9949787E1,-1.2505836E2,1.12594696E2,-6.575641E0,-2.5512985E2,2.7773685E2,4.841224E1,-3.928639E0,8.606897E0,-1.0594968E1,-2.8454132E1,-1.0418528E1,1.5230949E1,1.8782351E0,3.1806059E1],"categories":[],"categories_nodes":[],"categories_segments":[],"categories_sizes":[],"default_left":[0,0,0,0,0,0,0,0,0,0,0,0,0,0,0],"id":33,"left_children":[1,3,5,7,9,11,13,-1,-1,-1,-1,-1,-1,-1,-1],"loss_changes":[5.1325365E6,2.2945948E6,2.4561748E6,1.0300079E6,8.430475E5,9.12868E5,1.0535122E6,0E0,0E0,0E0,0E0,0E0,0E0,0E0,0E0],"parents":[2147483647,0,0,1,1,2,2,3,3,4,4,5,5,6,6],"right_children":[2,4,6,8,10,12,14,-1,-1,-1,-1,-1,-1,-1,-1],"split_conditions":[1.8546848E3,3E0,9E0,1.730142E3,1.9747661E3,1.6659901E3,2.8712505E3,-3.928639E0,8.606897E0,-1.0594968E1,-2.8454132E1,-1.0418528E1,1.5230949E1,1.8782351E0,3.1806059E1],"split_indices":[7,0,1,7,8,8,8,0,0,0,0,0,0,0,0],"split_type":[0,0,0,0,0,0,0,0,0,0,0,0,0,0,0],"sum_hessian":[3.8E2,1.48E2,2.32E2,7.8E1,7E1,6.4E1,1.68E2,5.6E1,2.2E1,6.3E1,7E0,3E0,6.1E1,1.66E2,2E0],"tree_param":{"num_deleted":"0","num_feature":"9","num_nodes":"15","size_leaf_vector":"1"}},{"base_weights":[4.7427654E0,-7.164228E1,2.4441133E2,-3.4074646E1,-2.8517413E2,1.8612685E2,4.507576E2,-7.8126755E0,-6.1608773E-1,-1.5969974E1,2.9662878E1,9.065901E-1,1.3241391E1,-7.200586E0,2.6242188E1],"categories":[],"categories_nodes":[],"categories_segments":[],"categories_sizes":[],"default_left":[0,0,0,0,0,0,0,0,0,0,0,0,0,0,0],"id":34,"left_children":[1,3,5,7,9,11,13,-1,-1,-1,-1,-1,-1,-1,-1],"loss_changes":[7.1206635E6,2.3567395E6,1.04662E6,6.67826E5,1.5123288E6,9.86801E5,9.568665E5,0E0,0E0,0E0,0E0,0E0,0E0,0E0,0E0],"parents":[2147483647,0,0,1,1,2,2,3,3,4,4,5,5,6,6],"right_children":[2,4,6,8,10,12,14,-1,-1,-1,-1,-1,-1,-1,-1],"split_conditions":[2.658937E3,1E0,3.285654E3,1.441492E3,2.7828452E3,2.5639E3,2.261195E3,-7.8126755E0,-6.1608773E-1,-1.5969974E1,2.9662878E1,9.065901E-1,1.3241391E1,-7.200586E0,2.6242188E1],"split_indices":[6,4,6,6,7,7,7,0,0,0,0,0,0,0,0],"split_type":[0,0,0,0,0,0,0,0,0,0,0,0,0,0,0],"sum_hessian":[3.87E2,2.94E2,9.3E1,2.51E2,4.3E1,7.4E1,1.9E1,3.7E1,2.14E2,4.2E1,1E0,2.4E1,5E1,2E0,1.7E1],"tree_param":{"num_deleted":"0","num_feature":"9","num_nodes":"15","size_leaf_vector":"1"}},{"base_weights":[2.3257925E1,-6.642927E1,2.5745752E2,-2.7835045E1,-2.4402737E2,-2.1368474E2,3.1741586E2,-4.654428E0,3.3895917E0,-9.500398E0,-2.1244923E1,-1.9469524E1,-1.6276716E0,3.1061045E1,1.4215459E1],"categories":[],"categories_nodes":[],"categories_segments":[],"categories_sizes":[],"default_left":[0,0,0,0,0,0,0,0,0,0,0,0,0,0,0],"id":35,"left_children":[1,3,5,7,9,11,13,-1,-1,-1,-1,-1,-1,-1,-1],"loss_changes":[7.662815E6,1.8027324E6,2.9209665E6,1.3666284E6,3.7848175E5,3.692337E5,7.28599E5,0E0,0E0,0E0,0E0,0E0,0E0,0E0,0E0],"parents":[2147483647,0,0,1,1,2,2,3,3,4,4,5,5,6,6],"right_children":[2,4,6,8,10,12,14,-1,-1,-1,-1,-1,-1,-1,-1],"split_conditions":[2.55087E3,5E0,1E0,2.0152678E3,2.12078E3,2.6895422E3,3E0,-4.654428E0,3.3895917E0,-9.500398E0,-2.1244923E1,-1.9469524E1,-1.6276716E0,3.1061045E1,1.4215459E1],"split_indices":[6,0,0,7,6,7,2,0,0,0,0,0,0,0,0],"split_type":[0,0,0,0,0,0,0,0,0,0,0,0,0,0,0],"sum_hessian":[3.63E2,2.63E2,1E2,2.17E2,4.6E1,1.1E1,8.9E1,1.29E2,8.8E1,3.7E1,9E0,5E0,6E0,7E0,8.2E1],"tree_param":{"num_deleted":"0","num_feature":"9","num_nodes":"15","size_leaf_vector":"1"}},{"base_weights":[-8.360176E0,-1.0719947E2,1.8410074E2,-2.2534592E2,-5.2887447E1,-9.208207E1,2.2060785E2,-1.2003231E1,2.3435774E1,-1.6052946E0,-2.1746672E1,7.9204636E0,-2.1838614E1,2.0056866E1,6.37574E0],"categories":[],"categories_nodes":[],"categories_segments":[],"categories_sizes":[],"default_left":[0,0,0,0,0,0,0,0,0,0,0,0,0,0,0],"id":36,"left_children":[1,3,5,7,9,11,13,-1,-1,-1,-1,-1,-1,-1,-1],"loss_changes":[7.343475E6,1.624359E6,1.341139E6,9.2977625E5,1.3833896E6,1.4506592E6,1.8983495E6,0E0,0E0,0E0,0E0,0E0,0E0,0E0,0E0],"parents":[2147483647,0,0,1,1,2,2,3,3,4,4,5,5,6,6],"right_children":[2,4,6,8,10,12,14,-1,-1,-1,-1,-1,-1,-1,-1],"split_conditions":[2.453309E3,1.5265525E3,1E0,2.024E3,2.4121045E3,9E0,3E0,-1.2003231E1,2.3435774E1,-1.6052946E0,-2.1746672E1,7.9204636E0,-2.1838614E1,2.0056866E1,6.37574E0],"split_indices":[6,6,0,3,6,2,0,0,0,0,0,0,0,0,0],"split_type":[0,0,0,0,0,0,0,0,0,0,0,0,0,0,0],"sum_hessian":[3.84E2,2.54E2,1.3E2,7.9E1,1.75E2,1.5E1,1.15E2,7.8E1,1E0,1.67E2,8E0,9E0,6E0,3.8E1,7.7E1],"tree_param":{"num_deleted":"0","num_feature":"9","num_nodes":"15","size_leaf_vector":"1"}},{"base_weights":[-7.2911897E0,-8.407779E1,1.8900874E2,-6.991716E1,-3.0913126E1,1.4226538E2,6.328673E2,-7.3776093E0,2.7058253E-1,1.8283493E1,2.8843741E0,-9.240479E-1,3.9900723E1],"categories":[],"categories_nodes":[],"categories_segments":[],"categories_sizes":[],"default_left":[0,0,0,0,0,0,0,0,0,0,0,0,0],"id":37,"left_children":[1,3,5,7,-1,9,11,-1,-1,-1,-1,-1,-1],"loss_changes":[5.788929E6,2.0445452E6,2.1506888E6,1.5798002E6,0E0,1.8495185E6,1.090431E6,0E0,0E0,0E0,0E0,0E0,0E0],"parents":[2147483647,0,0,1,1,2,2,3,3,5,5,6,6],"right_children":[2,4,6,8,-1,10,12,-1,-1,-1,-1,-1,-1],"split_conditions":[2.55087E3,6E0,3.501314E3,1.8718735E3,-3.0913126E1,2.4638408E3,2E0,-7.3776093E0,2.7058253E-1,1.8283493E1,2.8843741E0,-9.240479E-1,3.9900723E1],"split_indices":[6,0,6,6,0,8,0,0,0,0,0,0,0],"split_type":[0,0,0,0,0,0,0,0,0,0,0,0,0],"sum_hessian":[3.82E2,2.75E2,1.07E2,2.69E2,6E0,9.8E1,9E0,1.32E2,1.37E2,2.6E1,7.2E1,2E0,7E0],"tree_param":{"num_deleted":"0","num_feature":"9","num_nodes":"13","size_leaf_vector":"1"}},{"base_weights":[-7.048979E0,-9.3079926E1,1.5985231E2,-2.5797742E2,-4.3473698E1,9.093188E1,4.3733826E2,-2.62137E1,-1.08969345E1,-9.6844083E-1,-2.737621E1,-1.3056429E1,7.119953E0,1.4748528E1,4.3136776E1],"categories":[],"categories_nodes":[],"categories_segments":[],"categories_sizes":[],"default_left":[0,0,0,0,0,0,0,0,0,0,0,0,0,0,0],"id":38,"left_children":[1,3,5,7,9,11,13,-1,-1,-1,-1,-1,-1,-1,-1],"loss_changes":[5.5716865E6,2.0828502E6,2.48466E6,5.1480875E5,2.3951105E6,1.975977E6,1.3201515E6,0E0,0E0,0E0,0E0,0E0,0E0,0E0,0E0],"parents":[2147483647,0,0,1,1,2,2,3,3,4,4,5,5,6,6],"right_children":[2,4,6,8,10,12,14,-1,-1,-1,-1,-1,-1,-1,-1],"split_conditions":[2.439056E3,1.441492E3,3.285654E3,6.670945E2,2.4121045E3,1E0,5E0,-2.62137E1,-1.08969345E1,-9.6844083E-1,-2.737621E1,-1.3056429E1,7.119953E0,1.4748528E1,4.3136776E1],"split_indices":[6,6,6,6,6,0,0,0,0,0,0,0,0,0,0],"split_type":[0,0,0,0,0,0,0,0,0,0,0,0,0,0,0],"sum_hessian":[3.86E2,2.55E2,1.31E2,5.8E1,1.97E2,1.06E2,2.5E1,6E0,5.2E1,1.89E2,8E0,1.3E1,9.3E1,2E1,5E0],"tree_param":{"num_deleted":"0","num_feature":"9","num_nodes":"15","size_leaf_vector":"1"}},{"base_weights":[-6.7021866E0,-9.058092E1,1.604836E2,-7.4840996E1,-5.369741E2,4.5389685E2,1.0245224E2,-4.379524E0,1.696552E1,-4.5790173E1,-1.4895406E1,4.546621E0,4.0429733E1,3.2700527E0,1.9264029E1],"categories":[],"categories_nodes":[],"categories_segments":[],"categories_sizes":[],"default_left":[0,0,0,0,0,0,0,0,0,0,0,0,0,0,0],"id":39,"left_children":[1,3,5,7,9,11,13,-1,-1,-1,-1,-1,-1,-1,-1],"loss_changes":[5.6659395E6,1.8498588E6,2.252165E6,1.4078575E6,5.4226175E5,2.7588125E6,1.1694225E6,0E0,0E0,0E0,0E0,0E0,0E0,0E0,0E0],"parents":[2147483647,0,0,1,1,2,2,3,3,4,4,5,5,6,6],"right_children":[2,4,6,8,10,12,14,-1,-1,-1,-1,-1,-1,-1,-1],"split_conditions":[2.453309E3,2.4121045E3,4E0,2.3745916E3,7E0,3E0,3.126318E3,-4.379524E0,1.696552E1,-4.5790173E1,-1.4895406E1,4.546621E0,4.0429733E1,3.2700527E0,1.9264029E1],"split_indices":[6,6,1,6,2,1,7,0,0,0,0,0,0,0,0],"split_type":[0,0,0,0,0,0,0,0,0,0,0,0,0,0,0],"sum_hessian":[4.02E2,2.68E2,1.34E2,2.6E2,8E0,2.1E1,1.13E2,2.53E2,7E0,2E0,6E0,1.1E1,1E1,1.01E2,1.2E1],"tree_param":{"num_deleted":"0","num_feature":"9","num_nodes":"15","size_leaf_vector":"1"}},{"base_weights":[9.483789E0,-5.6534557E1,2.2412411E2,-1.3366765E1,-2.7300757E2,1.3700659E2,4.2324573E2,-6.6768184E0,2.8610923E0,-2.1980097E1,-1.1099128E1,-1.8606066E1,9.910052E0,-1.0255585E1,2.2829226E1],"categories":[],"categories_nodes":[],"categories_segments":[],"categories_sizes":[],"default_left":[0,0,0,0,0,0,0,0,0,0,0,0,0,0,0],"id":40,"left_children":[1,3,5,7,9,11,13,-1,-1,-1,-1,-1,-1,-1,-1],"loss_changes":[5.241474E6,2.64089E6,1.4512E6,2.0180184E6,3.0193875E5,2.0054141E6,6.38316E5,0E0,0E0,0E0,0E0,0E0,0E0,0E0,0E0],"parents":[2147483647,0,0,1,1,2,2,3,3,4,4,5,5,6,6],"right_children":[2,4,6,8,10,12,14,-1,-1,-1,-1,-1,-1,-1,-1],"split_conditions":[2.74685E3,5E0,3.285654E3,1.841099E3,8.222545E2,1E0,2.261195E3,-6.6768184E0,2.8610923E0,-2.1980097E1,-1.1099128E1,-1.8606066E1,9.910052E0,-1.0255585E1,2.2829226E1],"split_indices":[6,0,6,6,6,0,7,0,0,0,0,0,0,0,0],"split_type":[0,0,0,0,0,0,0,0,0,0,0,0,0,0,0],"sum_hessian":[3.68E2,2.82E2,8.6E1,2.36E2,4.6E1,6.1E1,2.5E1,8.7E1,1.49E2,9E0,3.7E1,6E0,5.5E1,1E0,2.4E1],"tree_param":{"num_deleted":"0","num_feature":"9","num_nodes":"15","size_leaf_vector":"1"}},{"base_weights":[5.0798926E0,-1.0447067E2,8.4865234E1,-1.6601202E1,-1.8892296E2,5.879582E2,6.566145E1,-1.075669E1,3.1206734E0,-7.429596E0,-1.6719458E1,3.6738174E1,-1.0991971E1,-6.048435E0,5.3321967E0],"categories":[],"categories_nodes":[],"categories_segments":[],"categories_sizes":[],"default_left":[0,0,0,0,0,0,0,0,0,0,0,0,0,0,0],"id":41,"left_children":[1,3,5,7,9,11,13,-1,-1,-1,-1,-1,-1,-1,-1],"loss_changes":[3.3390078E6,1.1916088E6,2.096538E6,1.2683862E6,4.3139025E5,1.1102418E6,1.6496938E6,0E0,0E0,0E0,0E0,0E0,0E0,0E0,0E0],"parents":[2147483647,0,0,1,1,2,2,3,3,4,4,5,5,6,6],"right_children":[2,4,6,8,10,12,14,-1,-1,-1,-1,-1,-1,-1,-1],"split_conditions":[2.0091893E3,3E0,1.840697E3,1.5198247E3,1.7803688E3,3.1E1,2.2450466E3,-1.075669E1,3.1206734E0,-7.429596E0,-1.6719458E1,3.6738174E1,-1.0991971E1,-6.048435E0,5.3321967E0],"split_indices":[7,0,8,8,8,1,8,0,0,0,0,0,0,0,0],"split_type":[0,0,0,0,0,0,0,0,0,0,0,0,0,0,0],"sum_hessian":[3.8E2,1.6E2,2.2E2,7.9E1,8.1E1,7E0,2.13E2,2.2E1,5.7E1,6.5E1,1.6E1,6E0,1E0,3.8E1,1.75E2],"tree_param":{"num_deleted":"0","num_feature":"9","num_nodes":"15","size_leaf_vector":"1"}},{"base_weights":[1.5600045E1,-7.720653E1,1.5656203E2,-3.314357E1,-2.7155334E2,1.06830574E2,3.8963397E2,-3.0204162E-1,-1.3623546E1,-9.983897E0,-2.2797937E1,7.1212206E0,-1.3749934E1,1.1154616E1,4.0490265E1],"categories":[],"categories_nodes":[],"categories_segments":[],"categories_sizes":[],"default_left":[0,0,0,0,0,0,0,0,0,0,0,0,0,0,0],"id":42,"left_children":[1,3,5,7,9,11,13,-1,-1,-1,-1,-1,-1,-1,-1],"loss_changes":[4.944077E6,1.9434768E6,1.6970265E6,1.2113159E6,4.6563175E5,1.7380125E6,1.6387158E6,0E0,0E0,0E0,0E0,0E0,0E0,0E0,0E0],"parents":[2147483647,0,0,1,1,2,2,3,3,4,4,5,5,6,6],"right_children":[2,4,6,8,10,12,14,-1,-1,-1,-1,-1,-1,-1,-1],"split_conditions":[2.288926E3,5E0,3.2358484E3,2.499221E3,1.9643273E3,3.1413225E3,5E0,-3.0204162E-1,-1.3623546E1,-9.983897E0,-2.2797937E1,7.1212206E0,-1.3749934E1,1.1154616E1,4.0490265E1],"split_indices":[6,0,6,7,8,6,0,0,0,0,0,0,0,0,0],"split_type":[0,0,0,0,0,0,0,0,0,0,0,0,0,0,0],"sum_hessian":[3.76E2,2.27E2,1.49E2,1.86E2,4.1E1,1.24E2,2.5E1,1.68E2,1.8E1,3.1E1,1E1,1.14E2,1E1,1.9E1,6E0],"tree_param":{"num_deleted":"0","num_feature":"9","num_nodes":"15","size_leaf_vector":"1"}},{"base_weights":[-6.7870755E0,-6.782815E1,1.2745847E2,-5.311366E1,-4.8210687E2,4.1701328E2,7.280799E1,-7.350805E0,-9.702172E-1,-1.6194595E1,-3.452864E1,2.038889E0,3.4346603E1,2.529983E0,3.9810955E1],"categories":[],"categories_nodes":[],"categories_segments":[],"categories_sizes":[],"default_left":[0,0,0,0,0,0,0,0,0,0,0,0,0,0,0],"id":43,"left_children":[1,3,5,7,9,11,13,-1,-1,-1,-1,-1,-1,-1,-1],"loss_changes":[3.1717192E6,1.5959022E6,1.8843795E6,8.13817E5,7.3171125E4,1.901496E6,1.6144842E6,0E0,0E0,0E0,0E0,0E0,0E0,0E0,0E0],"parents":[2147483647,0,0,1,1,2,2,3,3,4,4,5,5,6,6],"right_children":[2,4,6,8,10,12,14,-1,-1,-1,-1,-1,-1,-1,-1],"split_conditions":[2.439056E3,6E0,4E0,1.5265525E3,7.75747E2,3E0,3E1,-7.350805E0,-9.702172E-1,-1.6194595E1,-3.452864E1,2.038889E0,3.4346603E1,2.529983E0,3.9810955E1],"split_indices":[6,0,1,6,6,1,1,0,0,0,0,0,0,0,0],"split_type":[0,0,0,0,0,0,0,0,0,0,0,0,0,0,0],"sum_hessian":[3.85E2,2.65E2,1.2E2,2.57E2,8E0,1.8E1,1.02E2,6.7E1,1.9E2,6E0,2E0,8E0,1E1,1E2,2E0],"tree_param":{"num_deleted":"0","num_feature":"9","num_nodes":"15","size_leaf_vector":"1"}},{"base_weights":[3.9618204E0,-4.598455E1,1.9793347E2,-9.579918E0,-2.3449878E2,4.415022E2,1.2795603E2,-5.473287E0,2.2783344E0,-2.7420328E1,-9.720452E0,9.787147E0,3.4675674E1,4.686866E0,3.848392E1],"categories":[],"categories_nodes":[],"categories_segments":[],"categories_sizes":[],"default_left":[0,0,0,0,0,0,0,0,0,0,0,0,0,0,0],"id":44,"left_children":[1,3,5,7,9,11,13,-1,-1,-1,-1,-1,-1,-1,-1],"loss_changes":[3.6906105E6,2.077179E6,1.2729635E6,1.4096209E6,5.100245E5,9.171295E5,1.2893052E6,0E0,0E0,0E0,0E0,0E0,0E0,0E0,0E0],"parents":[2147483647,0,0,1,1,2,2,3,3,4,4,5,5,6,6],"right_children":[2,4,6,8,10,12,14,-1,-1,-1,-1,-1,-1,-1,-1],"split_conditions":[2.72752E3,5E0,4E0,1.8699075E3,5E0,3E0,3E1,-5.473287E0,2.2783344E0,-2.7420328E1,-9.720452E0,9.787147E0,3.4675674E1,4.686866E0,3.848392E1],"split_indices":[6,0,1,6,1,1,1,0,0,0,0,0,0,0,0],"split_type":[0,0,0,0,0,0,0,0,0,0,0,0,0,0,0],"sum_hessian":[3.79E2,3.02E2,7.7E1,2.54E2,4.8E1,1.6E1,6.1E1,9E1,1.64E2,4E0,4.4E1,9E0,7E0,5.9E1,2E0],"tree_param":{"num_deleted":"0","num_feature":"9","num_nodes":"15","size_leaf_vector":"1"}},{"base_weights":[3.2263824E1,-1.364279E0,2.881988E2,3.538669E1,-2.3294911E2,2.1073459E2,3.524754E1,1.0786499E1,1.6122591E-1,-1.485733E1,-5.864276E0,8.346515E0,3.1846922E1],"categories":[],"categories_nodes":[],"categories_segments":[],"categories_sizes":[],"default_left":[0,0,0,0,0,0,0,0,0,0,0,0,0],"id":45,"left_children":[1,3,5,7,9,11,-1,-1,-1,-1,-1,-1,-1],"loss_changes":[3.0385252E6,2.6721762E6,1.1750602E6,1.5711671E6,2.844375E5,5.657796E5,0E0,0E0,0E0,0E0,0E0,0E0,0E0],"parents":[2147483647,0,0,1,1,2,2,3,3,4,4,5,5],"right_children":[2,4,6,8,10,12,-1,-1,-1,-1,-1,-1,-1],"split_conditions":[3.048634E3,1E0,2.5E1,6E0,1E1,3.887497E3,3.524754E1,1.0786499E1,1.6122591E-1,-1.485733E1,-5.864276E0,8.346515E0,3.1846922E1],"split_indices":[6,4,1,1,2,6,0,0,0,0,0,0,0],"split_type":[0,0,0,0,0,0,0,0,0,0,0,0,0],"sum_hessian":[3.52E2,3.12E2,4E1,2.7E2,4.2E1,3.5E1,5E0,4E1,2.3E2,2.6E1,1.6E1,3.3E1,2E0],"tree_param":{"num_deleted":"0","num_feature":"9","num_nodes":"13","size_leaf_vector":"1"}},{"base_weights":[-2.1273363E1,-1.2057801E2,3.203902E1,1.0971226E1,-1.4651599E2,2.613074E2,8.770548E0,-1.3150255E1,6.156982E0,-2.205387E1,-6.576113E0,2.3272464E0,2.9510534E1,8.329064E-1,-2.941754E1],"categories":[],"categories_nodes":[],"categories_segments":[],"categories_sizes":[],"default_left":[0,0,0,0,0,0,0,0,0,0,0,0,0,0,0],"id":46,"left_children":[1,3,5,7,9,11,13,-1,-1,-1,-1,-1,-1,-1,-1],"loss_changes":[2.0315294E6,4.5883175E5,1.3313896E6,7.3921056E5,4.36645E5,1.5971588E6,1.0836449E6,0E0,0E0,0E0,0E0,0E0,0E0,0E0,0E0],"parents":[2147483647,0,0,1,1,2,2,3,3,4,4,5,5,6,6],"right_children":[2,4,6,8,10,12,14,-1,-1,-1,-1,-1,-1,-1,-1],"split_conditions":[1.8546848E3,1E0,4E0,1.4105653E3,1.0546823E3,3E0,6E0,-1.3150255E1,6.156982E0,-2.205387E1,-6.576113E0,2.3272464E0,2.9510534E1,8.329064E-1,-2.941754E1],"split_indices":[7,0,1,7,8,1,0,0,0,0,0,0,0,0,0],"split_type":[0,0,0,0,0,0,0,0,0,0,0,0,0,0,0],"sum_hessian":[3.82E2,1.33E2,2.49E2,2.2E1,1.11E2,2.2E1,2.27E2,6E0,1.6E1,4E0,1.07E2,1.4E1,8E0,2.25E2,2E0],"tree_param":{"num_deleted":"0","num_feature":"9","num_nodes":"15","size_leaf_vector":"1"}},{"base_weights":[-5.351126E-1,-5.8559692E1,8.265998E1,1.7616573E1,-1.2756397E2,4.443757E2,4.902155E1,-5.246701E0,5.1030793E0,-1.4496323E1,-3.185753E0,3.463014E1,-7.047673E0,9.942522E-1,1.9485918E1],"categories":[],"categories_nodes":[],"categories_segments":[],"categories_sizes":[],"default_left":[0,0,0,0,0,0,0,0,0,0,0,0,0,0,0],"id":47,"left_children":[1,3,5,7,9,11,13,-1,-1,-1,-1,-1,-1,-1,-1],"loss_changes":[1.9502669E6,1.2532912E6,1.9980291E6,1.1904714E6,1.2773608E6,2.131748E6,1.5110376E6,0E0,0E0,0E0,0E0,0E0,0E0,0E0,0E0],"parents":[2147483647,0,0,1,1,2,2,3,3,4,4,5,5,6,6],"right_children":[2,4,6,8,10,12,14,-1,-1,-1,-1,-1,-1,-1,-1],"split_conditions":[2.3246753E3,3E0,2.2198462E3,1.7252197E3,4E0,3E0,3.126318E3,-5.246701E0,5.1030793E0,-1.4496323E1,-3.185753E0,3.463014E1,-7.047673E0,9.942522E-1,1.9485918E1],"split_indices":[7,0,8,7,0,0,7,0,0,0,0,0,0,0,0],"split_type":[0,0,0,0,0,0,0,0,0,0,0,0,0,0,0],"sum_hessian":[4.02E2,2.37E2,1.65E2,1.13E2,1.24E2,1.3E1,1.52E2,4.6E1,6.7E1,3.4E1,9E1,9E0,4E0,1.41E2,1.1E1],"tree_param":{"num_deleted":"0","num_feature":"9","num_nodes":"15","size_leaf_vector":"1"}},{"base_weights":[1.0159704E1,-7.472467E1,1.11223274E2,-4.3592926E1,-2.0040984E2,7.5378395E1,3.7011633E2,2.0158777E1,-2.4224875E0,-8.346715E0,-2.425314E1,5.441817E0,-6.5777965E0,1.4917693E1,3.0922953E1],"categories":[],"categories_nodes":[],"categories_segments":[],"categories_sizes":[],"default_left":[0,0,0,0,0,0,0,0,0,0,0,0,0,0,0],"id":48,"left_children":[1,3,5,7,9,11,13,-1,-1,-1,-1,-1,-1,-1,-1],"loss_changes":[3.4397985E6,8.442535E5,1.6703395E6,4.0143188E5,3.2876962E5,1.1359405E6,2.075575E5,0E0,0E0,0E0,0E0,0E0,0E0,0E0,0E0],"parents":[2147483647,0,0,1,1,2,2,3,3,4,4,5,5,6,6],"right_children":[2,4,6,8,10,12,14,-1,-1,-1,-1,-1,-1,-1,-1],"split_conditions":[2.253641E3,5E0,3.3519504E3,9.018485E2,2.004607E3,5E0,1E1,2.0158777E1,-2.4224875E0,-8.346715E0,-2.425314E1,5.441817E0,-6.5777965E0,1.4917693E1,3.0922953E1],"split_indices":[6,0,6,7,6,0,2,0,0,0,0,0,0,0,0],"split_type":[0,0,0,0,0,0,0,0,0,0,0,0,0,0,0],"sum_hessian":[3.99E2,2.17E2,1.82E2,1.75E2,4.2E1,1.61E2,2.1E1,1E0,1.74E2,3.9E1,3E0,1.39E2,2.2E1,1.8E1,3E0],"tree_param":{"num_deleted":"0","num_feature":"9","num_nodes":"15","size_leaf_vector":"1"}},{"base_weights":[1.7953218E1,-2.797263E1,1.4191167E2,1.9060398E1,-9.5752785E1,-1.8746419E2,1.8016685E2,-2.4125152E0,4.0301814E0,-1.7004236E1,-3.5550802E0,8.425318E0,-1.710082E1,6.8414497E0,2.5876032E1],"categories":[],"categories_nodes":[],"categories_segments":[],"categories_sizes":[],"default_left":[0,0,0,0,0,0,0,0,0,0,0,0,0,0,0],"id":49,"left_children":[1,3,5,7,9,11,13,-1,-1,-1,-1,-1,-1,-1,-1],"loss_changes":[2.12742E6,8.721235E5,1.306409E6,6.74977E5,6.5040344E5,6.628085E5,1.259625E6,0E0,0E0,0E0,0E0,0E0,0E0,0E0,0E0],"parents":[2147483647,0,0,1,1,2,2,3,3,4,4,5,5,6,6],"right_children":[2,4,6,8,10,12,14,-1,-1,-1,-1,-1,-1,-1,-1],"split_conditions":[2.55087E3,3E0,1E0,1.8540095E3,1.0658945E3,4E0,3.501314E3,-2.4125152E0,4.0301814E0,-1.7004236E1,-3.5550802E0,8.425318E0,-1.710082E1,6.8414497E0,2.5876032E1],"split_indices":[6,0,0,6,6,1,6,0,0,0,0,0,0,0,0],"split_type":[0,0,0,0,0,0,0,0,0,0,0,0,0,0,0],"sum_hessian":[3.72E2,2.72E2,1E2,1.61E2,1.11E2,1E1,9E1,7.7E1,8.4E1,9E0,1.02E2,3E0,7E0,8.1E1,9E0],"tree_param":{"num_deleted":"0","num_feature":"9","num_nodes":"15","size_leaf_vector":"1"}},{"base_weights":[4.256748E0,-7.384268E1,7.349465E1,-5.4695457E1,-3.273864E2,4.201103E2,5.2435535E1,-1.8093885E1,-1.9915323E0,-2.2369112E1,-5.6413774E0,2.9517797E1,-3.3985002E0,2.9713073E0,-3.364216E1],"categories":[],"categories_nodes":[],"categories_segments":[],"categories_sizes":[],"default_left":[0,0,0,0,0,0,0,0,0,0,0,0,0,0,0],"id":50,"left_children":[1,3,5,7,9,11,13,-1,-1,-1,-1,-1,-1,-1,-1],"loss_changes":[2.162996E6,8.947691E5,1.5254481E6,7.8923844E5,2.8422325E5,1.037249E6,1.0590825E6,0E0,0E0,0E0,0E0,0E0,0E0,0E0,0E0],"parents":[2147483647,0,0,1,1,2,2,3,3,4,4,5,5,6,6],"right_children":[2,4,6,8,10,12,14,-1,-1,-1,-1,-1,-1,-1,-1],"split_conditions":[2.082474E3,2.1499014E3,2.1208608E3,1.0684502E3,2.2070571E3,2.4990857E3,6E0,-1.8093885E1,-1.9915323E0,-2.2369112E1,-5.6413774E0,2.9517797E1,-3.3985002E0,2.9713073E0,-3.364216E1],"split_indices":[7,8,7,8,8,8,0,0,0,0,0,0,0,0,0],"split_type":[0,0,0,0,0,0,0,0,0,0,0,0,0,0,0],"sum_hessian":[3.98E2,1.87E2,2.11E2,1.75E2,1.2E1,1.1E1,2E2,7E0,1.68E2,7E0,5E0,8E0,3E0,1.99E2,1E0],"tree_param":{"num_deleted":"0","num_feature":"9","num_nodes":"15","size_leaf_vector":"1"}},{"base_weights":[5.926381E0,-3.7376614E1,1.8187328E2,-7.055459E0,-1.7056349E2,-2.145687E2,2.183975E2,-2.1940982E0,2.738958E0,-4.3581495E0,-1.6858324E1,7.344491E0,-1.9426504E1,-1.8509209E1,1.20411415E1],"categories":[],"categories_nodes":[],"categories_segments":[],"categories_sizes":[],"default_left":[0,0,0,0,0,0,0,0,0,0,0,0,0,0,0],"id":51,"left_children":[1,3,5,7,9,11,13,-1,-1,-1,-1,-1,-1,-1,-1],"loss_changes":[2.9705995E6,1.2628095E6,1.161801E6,5.8535494E5,7.7650825E5,4.972298E5,1.0262875E6,0E0,0E0,0E0,0E0,0E0,0E0,0E0,0E0],"parents":[2147483647,0,0,1,1,2,2,3,3,4,4,5,5,6,6],"right_children":[2,4,6,8,10,12,14,-1,-1,-1,-1,-1,-1,-1,-1],"split_conditions":[2.74685E3,5E0,1E0,2.137348E3,2.004607E3,2.552202E3,1.8858677E3,-2.1940982E0,2.738958E0,-4.3581495E0,-1.6858324E1,7.344491E0,-1.9426504E1,-1.8509209E1,1.20411415E1],"split_indices":[6,0,0,6,6,8,7,0,0,0,0,0,0,0,0],"split_type":[0,0,0,0,0,0,0,0,0,0,0,0,0,0,0],"sum_hessian":[3.88E2,3.12E2,7.6E1,2.55E2,5.7E1,6E0,7E1,1.6E2,9.5E1,3.9E1,1.8E1,2E0,4E0,2E0,6.8E1],"tree_param":{"num_deleted":"0","num_feature":"9","num_nodes":"15","size_leaf_vector":"1"}},{"base_weights":[1.4102561E1,9.370182E-1,4.2873907E2,9.168628E0,-3.8194995E2,2.2280997E2,6.7247784E2,-2.5634985E0,2.466508E0,-3.2379646E1,-1.2574386E1,-1.9765332E0,2.4751663E1,8.913538E0,3.7573097E1],"categories":[],"categories_nodes":[],"categories_segments":[],"categories_sizes":[],"default_left":[0,0,0,0,0,0,0,0,0,0,0,0,0,0,0],"id":52,"left_children":[1,3,5,7,9,11,13,-1,-1,-1,-1,-1,-1,-1,-1],"loss_changes":[2.128575E6,1.1980251E6,4.5248025E5,9.0548725E5,1.14389375E5,5.908909E5,6.120875E4,0E0,0E0,0E0,0E0,0E0,0E0,0E0,0E0],"parents":[2147483647,0,0,1,1,2,2,3,3,4,4,5,5,6,6],"right_children":[2,4,6,8,10,12,14,-1,-1,-1,-1,-1,-1,-1,-1],"split_conditions":[3.126318E3,6E0,5E0,1.8546848E3,5E0,2.7840662E3,7E0,-2.5634985E0,2.466508E0,-3.2379646E1,-1.2574386E1,-1.9765332E0,2.4751663E1,8.913538E0,3.7573097E1],"split_indices":[7,0,0,7,1,8,1,0,0,0,0,0,0,0,0],"split_type":[0,0,0,0,0,0,0,0,0,0,0,0,0,0,0],"sum_hessian":[3.89E2,3.78E2,1.1E1,3.71E2,7E0,7E0,4E0,1.48E2,2.23E2,1E0,6E0,4E0,3E0,1E0,3E0],"tree_param":{"num_deleted":"0","num_feature":"9","num_nodes":"15","size_leaf_vector":"1"}},{"base_weights":[1.4104249E1,-1.17829315E2,2.9272083E1,-1.351631E1,-1.4348518E2,-9.2157524E1,3.7775494E1,3.3749416E0,-9.90231E0,1.5461531E0,-8.129687E0,1.3651095E1,-1.0438207E1,2.4431694E1,1.0955657E0],"categories":[],"categories_nodes":[],"categories_segments":[],"categories_sizes":[],"default_left":[0,0,0,0,0,0,0,0,0,0,0,0,0,0,0],"id":53,"left_children":[1,3,5,7,9,11,13,-1,-1,-1,-1,-1,-1,-1,-1],"loss_changes":[7.7589156E5,1.0511025E5,3.6178162E5,1.4791533E5,1.11673875E5,1.03639094E6,2.313856E6,0E0,0E0,0E0,0E0,0E0,0E0,0E0,0E0],"parents":[2147483647,0,0,1,1,2,2,3,3,4,4,5,5,6,6],"right_children":[2,4,6,8,10,12,14,-1,-1,-1,-1,-1,-1,-1,-1],"split_conditions":[1.447915E3,8E0,3E0,1.4212498E3,9.018485E2,5E0,4E0,3.3749416E0,-9.90231E0,1.5461531E0,-8.129687E0,1.3651095E1,-1.0438207E1,2.4431694E1,1.0955657E0],"split_indices":[8,1,1,8,7,2,1,0,0,0,0,0,0,0,0],"split_type":[0,0,0,0,0,0,0,0,0,0,0,0,0,0,0],"sum_hessian":[3.85E2,3.9E1,3.46E2,8E0,3.1E1,2.2E1,3.24E2,6E0,2E0,3E0,2.8E1,5E0,1.7E1,1E1,3.14E2],"tree_param":{"num_deleted":"0","num_feature":"9","num_nodes":"15","size_leaf_vector":"1"}},{"base_weights":[-2.7825861E1,-6.393817E1,8.460527E1,-5.540227E1,-4.072148E2,6.3755684E1,3.5137035E1,3.7751598E0,-3.628587E0,-1.1125375E1,-2.8966105E1,9.703986E0,-1.0979573E0],"categories":[],"categories_nodes":[],"categories_segments":[],"categories_sizes":[],"default_left":[0,0,0,0,0,0,0,0,0,0,0,0,0],"id":54,"left_children":[1,3,5,7,9,11,-1,-1,-1,-1,-1,-1,-1],"loss_changes":[1.5848069E6,8.41841E5,1.1795435E6,6.550291E5,9.362275E4,1.0431371E6,0E0,0E0,0E0,0E0,0E0,0E0,0E0],"parents":[2147483647,0,0,1,1,2,2,3,3,4,4,5,5],"right_children":[2,4,6,8,10,12,-1,-1,-1,-1,-1,-1,-1],"split_conditions":[2.658937E3,6E0,3E1,6E0,6.670945E2,9E0,3.5137035E1,3.7751598E0,-3.628587E0,-1.1125375E1,-2.8966105E1,9.703986E0,-1.0979573E0],"split_indices":[6,0,1,1,6,1,0,0,0,0,0,0,0],"split_type":[0,0,0,0,0,0,0,0,0,0,0,0,0],"sum_hessian":[3.88E2,2.94E2,9.4E1,2.88E2,6E0,9.2E1,2E0,3.3E1,2.55E2,4E0,2E0,3.6E1,5.6E1],"tree_param":{"num_deleted":"0","num_feature":"9","num_nodes":"13","size_leaf_vector":"1"}},{"base_weights":[-1.4689586E1,-7.678469E0,-3.9720087E2,-1.5205328E1,1.7849593E2,-3.0873392E1,-1.28789215E1,1.1001152E0,-2.6673238E0,-9.252106E0,1.6375679E1],"categories":[],"categories_nodes":[],"categories_segments":[],"categories_sizes":[],"default_left":[0,0,0,0,0,0,0,0,0,0,0],"id":55,"left_children":[1,3,5,7,9,-1,-1,-1,-1,-1,-1],"loss_changes":[1.04286425E6,5.408165E5,5.6233125E4,5.262561E5,8.732076E5,0E0,0E0,0E0,0E0,0E0,0E0],"parents":[2147483647,0,0,1,1,2,2,3,3,4,4],"right_children":[2,4,6,8,10,-1,-1,-1,-1,-1,-1],"split_conditions":[6E0,3E1,5E0,3E0,1.8702826E3,-3.0873392E1,-1.28789215E1,1.1001152E0,-2.6673238E0,-9.252106E0,1.6375679E1],"split_indices":[0,1,1,0,7,0,0,0,0,0,0],"split_type":[0,0,0,0,0,0,0,0,0,0,0],"sum_hessian":[3.89E2,3.83E2,6E0,3.69E2,1.4E1,1E0,5E0,1.87E2,1.82E2,4E0,1E1],"tree_param":{"num_deleted":"0","num_feature":"9","num_nodes":"11","size_leaf_vector":"1"}},{"base_weights":[7.658575E0,7.553234E1,-1.5945498E1,1.2624268E2,-1.1883195E2,-8.326058E1,1.9229094E1,1.8870329E0,1.34769E1,-2.7718597E1,-7.721751E-1,-1.9459448E1,-3.1313996E0,-1.3806928E0,4.9293704E0],"categories":[],"categories_nodes":[],"categories_segments":[],"categories_sizes":[],"default_left":[0,0,0,0,0,0,0,0,0,0,0,0,0,0,0],"id":56,"left_children":[1,3,5,7,9,11,13,-1,-1,-1,-1,-1,-1,-1,-1],"loss_changes":[6.1480775E5,9.9077344E5,6.7641844E5,9.916994E5,9.370644E5,5.94211E5,7.015894E5,0E0,0E0,0E0,0E0,0E0,0E0,0E0,0E0],"parents":[2147483647,0,0,1,1,2,2,3,3,4,4,5,5,6,6],"right_children":[2,4,6,8,10,12,14,-1,-1,-1,-1,-1,-1,-1,-1],"split_conditions":[9E0,2.6774429E3,6E0,2.0257604E3,2.6998079E3,1E1,2.3E1,1.8870329E0,1.34769E1,-2.7718597E1,-7.721751E-1,-1.9459448E1,-3.1313996E0,-1.3806928E0,4.9293704E0],"split_indices":[1,8,2,8,8,1,1,0,0,0,0,0,0,0,0],"split_type":[0,0,0,0,0,0,0,0,0,0,0,0,0,0,0],"sum_hessian":[3.82E2,9.8E1,2.84E2,7.8E1,2E1,9.7E1,1.87E2,4.9E1,2.9E1,3E0,1.7E1,5E0,9.2E1,1.18E2,6.9E1],"tree_param":{"num_deleted":"0","num_feature":"9","num_nodes":"15","size_leaf_vector":"1"}},{"base_weights":[6.247445E0,-1.2531477E1,3.3323972E2,1.3714318E1,-1.16281296E2,7.310449E1,5.6308044E2,1.3148655E0,-2.1892092E1,-6.396589E0,1.8355091E1,-1.6753714E0,1.0387014E1,3.8151867E1,1.3463841E1],"categories":[],"categories_nodes":[],"categories_segments":[],"categories_sizes":[],"default_left":[0,0,0,0,0,0,0,0,0,0,0,0,0,0,0],"id":57,"left_children":[1,3,5,7,9,11,13,-1,-1,-1,-1,-1,-1,-1,-1],"loss_changes":[2.3744332E6,9.982114E5,1.2144192E6,1.6763185E6,4.6370562E5,1.6485242E5,4.407605E5,0E0,0E0,0E0,0E0,0E0,0E0,0E0,0E0],"parents":[2147483647,0,0,1,1,2,2,3,3,4,4,5,5,6,6],"right_children":[2,4,6,8,10,12,14,-1,-1,-1,-1,-1,-1,-1,-1],"split_conditions":[3.2358484E3,5E0,2.6515889E3,3.105554E3,3.1891194E3,3.535653E3,2.7882766E3,1.3148655E0,-2.1892092E1,-6.396589E0,1.8355091E1,-1.6753714E0,1.0387014E1,3.8151867E1,1.3463841E1],"split_indices":[6,0,8,6,6,6,8,0,0,0,0,0,0,0,0],"split_type":[0,0,0,0,0,0,0,0,0,0,0,0,0,0,0],"sum_hessian":[3.85E2,3.65E2,2E1,2.92E2,7.3E1,1E1,1E1,2.85E2,7E0,7.2E1,1E0,6E0,4E0,5E0,5E0],"tree_param":{"num_deleted":"0","num_feature":"9","num_nodes":"15","size_leaf_vector":"1"}},{"base_weights":[-1.5221923E1,6.681899E1,-4.4290295E1,-8.717169E1,1.0683075E2,-2.1306114E2,-3.441755E1,9.594483E-1,-2.8529596E1,1.0064395E1,7.141264E-1,3.2536182E0,-1.5559751E1,-7.1786265E0,-9.5645154E-1],"categories":[],"categories_nodes":[],"categories_segments":[],"categories_sizes":[],"default_left":[0,0,0,0,0,0,0,0,0,0,0,0,0,0,0],"id":58,"left_children":[1,3,5,7,9,11,13,-1,-1,-1,-1,-1,-1,-1,-1],"loss_changes":[9.4733856E5,6.501021E5,4.8087294E5,1.1421208E6,7.22698E5,4.569592E5,4.6118497E5,0E0,0E0,0E0,0E0,0E0,0E0,0E0,0E0],"parents":[2147483647,0,0,1,1,2,2,3,3,4,4,5,5,6,6],"right_children":[2,4,6,8,10,12,14,-1,-1,-1,-1,-1,-1,-1,-1],"split_conditions":[9E0,1.6826473E3,1E1,9E0,2.370523E3,1.8433439E3,1.4105653E3,9.594483E-1,-2.8529596E1,1.0064395E1,7.141264E-1,3.2536182E0,-1.5559751E1,-7.1786265E0,-9.5645154E-1],"split_indices":[1,7,1,2,8,7,7,0,0,0,0,0,0,0,0],"split_type":[0,0,0,0,0,0,0,0,0,0,0,0,0,0,0],"sum_hessian":[3.95E2,1.03E2,2.92E2,2.1E1,8.2E1,1.5E1,2.77E2,1.8E1,3E0,4E1,4.2E1,4E0,1.1E1,3.3E1,2.44E2],"tree_param":{"num_deleted":"0","num_feature":"9","num_nodes":"15","size_leaf_vector":"1"}},{"base_weights":[3.4403214E0,-9.363861E0,3.079505E2,-2.1310568E2,2.7195723E0,-3.400598E1,3.9627347E2,-1.3785972E1,-1.0526875E0,3.1007072E-1,-2.926653E1,4.157137E0,-9.636304E0,7.7152953E0,2.7353186E1],"categories":[],"categories_nodes":[],"categories_segments":[],"categories_sizes":[],"default_left":[0,0,0,0,0,0,0,0,0,0,0,0,0,0,0],"id":59,"left_children":[1,3,5,7,9,11,13,-1,-1,-1,-1,-1,-1,-1,-1],"loss_changes":[1.4494139E6,8.794781E5,4.6651488E5,2.3469681E5,6.9568406E5,9.03992E4,3.5342112E5,0E0,0E0,0E0,0E0,0E0,0E0,0E0,0E0],"parents":[2147483647,0,0,1,1,2,2,3,3,4,4,5,5,6,6],"right_children":[2,4,6,8,10,12,14,-1,-1,-1,-1,-1,-1,-1,-1],"split_conditions":[3.501314E3,1.165791E3,2E0,8E0,6E0,5E0,6E0,-1.3785972E1,-1.0526875E0,3.1007072E-1,-2.926653E1,4.157137E0,-9.636304E0,7.7152953E0,2.7353186E1],"split_indices":[6,6,0,2,0,2,2,0,0,0,0,0,0,0,0],"split_type":[0,0,0,0,0,0,0,0,0,0,0,0,0,0,0],"sum_hessian":[3.7E2,3.56E2,1.4E1,1.9E1,3.37E2,3E0,1.1E1,1.4E1,5E0,3.36E2,1E0,2E0,1E0,5E0,6E0],"tree_param":{"num_deleted":"0","num_feature":"9","num_nodes":"15","size_leaf_vector":"1"}},{"base_weights":[5.522978E0,-2.6546028E1,1.6874326E2,-1.9369596E1,-3.5594516E2,-1.8255594E2,2.0756276E2,-3.1586483E-1,-4.1664834E0,-9.422725E0,-2.5822397E1,7.698505E0,-2.367215E1,2.7032358E1,5.9983726E0],"categories":[],"categories_nodes":[],"categories_segments":[],"categories_sizes":[],"default_left":[0,0,0,0,0,0,0,0,0,0,0,0,0,0,0],"id":60,"left_children":[1,3,5,7,9,11,13,-1,-1,-1,-1,-1,-1,-1,-1],"loss_changes":[2.0720326E6,7.755599E5,9.24314E5,2.7079206E5,9.085206E4,7.581335E5,1.6565612E6,0E0,0E0,0E0,0E0,0E0,0E0,0E0,0E0],"parents":[2147483647,0,0,1,1,2,2,3,3,4,4,5,5,6,6],"right_children":[2,4,6,8,10,12,14,-1,-1,-1,-1,-1,-1,-1,-1],"split_conditions":[2.781688E3,6E0,1E0,5E0,6.670945E2,2.552202E3,3E0,-3.1586483E-1,-4.1664834E0,-9.422725E0,-2.5822397E1,7.698505E0,-2.367215E1,2.7032358E1,5.9983726E0],"split_indices":[6,0,0,0,6,8,0,0,0,0,0,0,0,0,0],"split_type":[0,0,0,0,0,0,0,0,0,0,0,0,0,0,0],"sum_hessian":[3.94E2,3.3E2,6.4E1,3.24E2,6E0,6E0,5.8E1,2.7E2,5.4E1,4E0,2E0,3E0,3E0,1.1E1,4.7E1],"tree_param":{"num_deleted":"0","num_feature":"9","num_nodes":"15","size_leaf_vector":"1"}},{"base_weights":[-1.7227272E1,-4.171528E1,1.17339645E2,1.2767492E1,-9.438227E1,4.9351956E2,6.0489124E1,3.0645168E0,-6.2685833E0,-6.7500267E0,1.034713E0,3.9318178E0,3.6336113E1,1.0786176E1,-7.3173875E-1],"categories":[],"categories_nodes":[],"categories_segments":[],"categories_sizes":[],"default_left":[0,0,0,0,0,0,0,0,0,0,0,0,0,0,0],"id":61,"left_children":[1,3,5,7,9,11,13,-1,-1,-1,-1,-1,-1,-1,-1],"loss_changes":[1.3263002E6,9.76816E5,1.296081E6,1.1337721E6,8.114319E5,7.1686825E5,6.445567E5,0E0,0E0,0E0,0E0,0E0,0E0,0E0,0E0],"parents":[2147483647,0,0,1,1,2,2,3,3,4,4,5,5,6,6],"right_children":[2,4,6,8,10,12,14,-1,-1,-1,-1,-1,-1,-1,-1],"split_conditions":[2.7507336E3,3E0,2.7677253E3,2.4776562E3,2.3554897E3,2.72752E3,9E0,3.0645168E0,-6.2685833E0,-6.7500267E0,1.034713E0,3.9318178E0,3.6336113E1,1.0786176E1,-7.3173875E-1],"split_indices":[7,0,7,7,7,6,1,0,0,0,0,0,0,0,0],"split_type":[0,0,0,0,0,0,0,0,0,0,0,0,0,0,0],"sum_hessian":[4E2,3.39E2,6.1E1,1.67E2,1.72E2,7E0,5.4E1,1.24E2,4.3E1,1.27E2,4.5E1,3E0,4E0,1.7E1,3.7E1],"tree_param":{"num_deleted":"0","num_feature":"9","num_nodes":"15","size_leaf_vector":"1"}},{"base_weights":[-1.1751542E1,-6.170647E0,-2.4298311E2,1.1207045E2,-1.7907568E1,-3.453676E2,-2.8660583E1,-1.4048542E0,2.0385115E1,-1.2152729E0,9.846648E0,-1.9369623E1,-3.3810852E0,1.19380865E1,-9.86943E0],"categories":[],"categories_nodes":[],"categories_segments":[],"categories_sizes":[],"default_left":[0,0,0,0,0,0,0,0,0,0,0,0,0,0,0],"id":62,"left_children":[1,3,5,7,9,11,13,-1,-1,-1,-1,-1,-1,-1,-1],"loss_changes":[4.927542E5,5.2242678E5,1.8759125E5,1.4203469E6,4.7487456E5,4.383725E4,2.2761538E5,0E0,0E0,0E0,0E0,0E0,0E0,0E0,0E0],"parents":[2147483647,0,0,1,1,2,2,3,3,4,4,5,5,6,6],"right_children":[2,4,6,8,10,12,14,-1,-1,-1,-1,-1,-1,-1,-1],"split_conditions":[1E0,4E0,8E0,3E0,3.126318E3,2E1,2.023E3,-1.4048542E0,2.0385115E1,-1.2152729E0,9.846648E0,-1.9369623E1,-3.3810852E0,1.19380865E1,-9.86943E0],"split_indices":[5,1,2,1,7,1,3,0,0,0,0,0,0,0,0],"split_type":[0,0,0,0,0,0,0,0,0,0,0,0,0,0,0],"sum_hessian":[3.82E2,3.74E2,8E0,3.3E1,3.41E2,5E0,3E0,2.3E1,1E1,3.32E2,9E0,4E0,1E0,1E0,2E0],"tree_param":{"num_deleted":"0","num_feature":"9","num_nodes":"15","size_leaf_vector":"1"}},{"base_weights":[-1.7340754E1,-5.4241936E1,7.1693756E1,-1.8774408E2,-3.5416878E1,3.3907098E2,3.725106E1,-1.7685406E1,-7.3466377E0,1.9148159E0,-3.8994796E0,3.1187992E1,1.1530197E1,-3.926006E0,6.0764537E0],"categories":[],"categories_nodes":[],"categories_segments":[],"categories_sizes":[],"default_left":[0,0,0,0,0,0,0,0,0,0,0,0,0,0,0],"id":63,"left_children":[1,3,5,7,9,11,13,-1,-1,-1,-1,-1,-1,-1,-1],"loss_changes":[1.2885111E6,6.895031E5,1.04642644E6,1.7831788E5,7.687004E5,2.5759025E5,1.0145099E6,0E0,0E0,0E0,0E0,0E0,0E0,0E0,0E0],"parents":[2147483647,0,0,1,1,2,2,3,3,4,4,5,5,6,6],"right_children":[2,4,6,8,10,12,14,-1,-1,-1,-1,-1,-1,-1,-1],"split_conditions":[2.5807727E3,1.4105653E3,2.4944387E3,1.0448828E3,1.7557228E3,2.2030566E3,3E0,-1.7685406E1,-7.3466377E0,1.9148159E0,-3.8994796E0,3.1187992E1,1.1530197E1,-3.926006E0,6.0764537E0],"split_indices":[7,7,8,7,8,8,0,0,0,0,0,0,0,0,0],"split_type":[0,0,0,0,0,0,0,0,0,0,0,0,0,0,0],"sum_hessian":[3.9E2,2.76E2,1.14E2,3.3E1,2.43E2,1.2E1,1.02E2,5E0,2.8E1,8.9E1,1.54E2,2E0,1E1,4.3E1,5.9E1],"tree_param":{"num_deleted":"0","num_feature":"9","num_nodes":"15","size_leaf_vector":"1"}},{"base_weights":[-4.415065E0,-2.753749E2,4.6543865E0,-2.1339723E2,-2.392823E1,-2.2453635E0,3.5193402E2,-4.9002624E0,-1.2220928E1,1.1825668E1,-5.670509E-1,2.3608614E1,-9.2373905E0],"categories":[],"categories_nodes":[],"categories_segments":[],"categories_sizes":[],"default_left":[0,0,0,0,0,0,0,0,0,0,0,0,0],"id":64,"left_children":[1,3,5,7,-1,9,11,-1,-1,-1,-1,-1,-1],"loss_changes":[9.105408E5,4.899425E4,8.6100544E5,1.5421469E4,0E0,7.692807E5,5.389406E5,0E0,0E0,0E0,0E0,0E0,0E0],"parents":[2147483647,0,0,1,1,2,2,3,3,5,5,6,6],"right_children":[2,4,6,8,-1,10,12,-1,-1,-1,-1,-1,-1],"split_conditions":[9.266395E2,1E0,3.126318E3,1E0,-2.392823E1,2E0,3.542188E3,-4.9002624E0,-1.2220928E1,1.1825668E1,-5.670509E-1,2.3608614E1,-9.2373905E0],"split_indices":[6,5,7,4,0,1,6,0,0,0,0,0,0],"split_type":[0,0,0,0,0,0,0,0,0,0,0,0,0],"sum_hessian":[3.69E2,1.1E1,3.58E2,1E1,1E0,3.52E2,6E0,3E0,7E0,1.2E1,3.4E2,5E0,1E0],"tree_param":{"num_deleted":"0","num_feature":"9","num_nodes":"13","size_leaf_vector":"1"}},{"base_weights":[-5.5900884E0,-4.5748768E1,1.0129989E2,-5.3001587E1,2.967146E2,2.7054777E1,8.3236946E1,-2.0275123E0,-2.6373734E1,-1.180293E1,2.2524048E1,-1.4370789E1,5.0558004E0],"categories":[],"categories_nodes":[],"categories_segments":[],"categories_sizes":[],"default_left":[0,0,0,0,0,0,0,0,0,0,0,0,0],"id":65,"left_children":[1,3,5,7,9,-1,11,-1,-1,-1,-1,-1,-1],"loss_changes":[1.6658551E6,7.161652E5,7.97025E5,1.6150786E6,5.9787556E5,0E0,7.116351E5,0E0,0E0,0E0,0E0,0E0,0E0],"parents":[2147483647,0,0,1,1,2,2,3,3,4,4,6,6],"right_children":[2,4,6,8,10,-1,12,-1,-1,-1,-1,-1,-1],"split_conditions":[2.574295E3,3.285654E3,4E0,2.9544685E3,2.261195E3,2.7054777E1,2.4391746E3,-2.0275123E0,-2.6373734E1,-1.180293E1,2.2524048E1,-1.4370789E1,5.0558004E0],"split_indices":[7,6,2,6,7,0,8,0,0,0,0,0,0],"split_type":[0,0,0,0,0,0,0,0,0,0,0,0,0],"sum_hessian":[3.86E2,2.81E2,1.05E2,2.76E2,5E0,3E0,1.02E2,2.7E2,6E0,1E0,4E0,4E0,9.8E1],"tree_param":{"num_deleted":"0","num_feature":"9","num_nodes":"13","size_leaf_vector":"1"}},{"base_weights":[1.55223675E1,-3.7182804E1,7.086429E1,-3.3292352E2,-2.807915E1,1.6472133E2,2.1285229E0,-1.931037E1,-1.6626037E0,-8.169028E-1,-1.1362991E1,1.0091727E1,-3.429596E0,-8.968888E0,1.9203688E0],"categories":[],"categories_nodes":[],"categories_segments":[],"categories_sizes":[],"default_left":[0,0,0,0,0,0,0,0,0,0,0,0,0,0,0],"id":66,"left_children":[1,3,5,7,9,11,13,-1,-1,-1,-1,-1,-1,-1,-1],"loss_changes":[1.1606066E6,5.398854E5,1.2512082E6,8.296369E4,4.6166816E5,7.238825E5,7.509763E5,0E0,0E0,0E0,0E0,0E0,0E0,0E0,0E0],"parents":[2147483647,0,0,1,1,2,2,3,3,4,4,5,5,6,6],"right_children":[2,4,6,8,10,12,14,-1,-1,-1,-1,-1,-1,-1,-1],"split_conditions":[2.137348E3,1.0448828E3,2.5439678E3,6E0,2.094085E3,3.1566575E3,1E0,-1.931037E1,-1.6626037E0,-8.169028E-1,-1.1362991E1,1.0091727E1,-3.429596E0,-8.968888E0,1.9203688E0],"split_indices":[6,7,8,0,6,6,0,0,0,0,0,0,0,0,0],"split_type":[0,0,0,0,0,0,0,0,0,0,0,0,0,0,0],"sum_hessian":[3.96E2,2.03E2,1.93E2,5E0,1.98E2,8.1E1,1.12E2,4E0,1E0,1.88E2,1E1,7E1,1.1E1,1.8E1,9.4E1],"tree_param":{"num_deleted":"0","num_feature":"9","num_nodes":"15","size_leaf_vector":"1"}},{"base_weights":[2.4425531E1,-7.7859985E1,4.9600937E1,-1.1235098E2,3.6050568E2,1.1564807E2,1.0964669E1,-1.5144289E1,-4.5542445E0,3.333485E1,-8.395898E0,1.2719597E1,-9.084102E-1,-2.709683E-1,1.3609775E1],"categories":[],"categories_nodes":[],"categories_segments":[],"categories_sizes":[],"default_left":[0,0,0,0,0,0,0,0,0,0,0,0,0,0,0],"id":67,"left_children":[1,3,5,7,9,11,13,-1,-1,-1,-1,-1,-1,-1,-1],"loss_changes":[1.0287436E6,1.234957E6,8.153128E5,2.722545E5,1.0827428E6,2.195432E6,8.703182E5,0E0,0E0,0E0,0E0,0E0,0E0,0E0,0E0],"parents":[2147483647,0,0,1,1,2,2,3,3,4,4,5,5,6,6],"right_children":[2,4,6,8,10,12,14,-1,-1,-1,-1,-1,-1,-1,-1],"split_conditions":[1.5265525E3,2.1469756E3,2.1434268E3,6.670945E2,2E0,3E0,3.535653E3,-1.5144289E1,-4.5542445E0,3.333485E1,-8.395898E0,1.2719597E1,-9.084102E-1,-2.709683E-1,1.3609775E1],"split_indices":[6,8,8,6,0,0,6,0,0,0,0,0,0,0,0],"split_type":[0,0,0,0,0,0,0,0,0,0,0,0,0,0,0],"sum_hessian":[3.97E2,7.8E1,3.19E2,7.3E1,5E0,1.17E2,2.02E2,6E0,6.7E1,3E0,2E0,5.7E1,6E1,1.91E2,1.1E1],"tree_param":{"num_deleted":"0","num_feature":"9","num_nodes":"15","size_leaf_vector":"1"}},{"base_weights":[5.4014187E0,-8.197475E0,1.885346E2,-1.4536812E1,3.1718536E2,8.776178E1,4.1689984E2,-6.511284E0,7.5997144E-4,9.483704E-1,1.8186356E1,1.02105E1,-1.0899286E1,1.1457438E1,2.7368185E1],"categories":[],"categories_nodes":[],"categories_segments":[],"categories_sizes":[],"default_left":[0,0,0,0,0,0,0,0,0,0,0,0,0,0,0],"id":68,"left_children":[1,3,5,7,9,11,13,-1,-1,-1,-1,-1,-1,-1,-1],"loss_changes":[9.72805E5,7.5543775E5,5.8476344E5,6.02697E5,9.0258125E4,7.565899E5,7.0530125E4,0E0,0E0,0E0,0E0,0E0,0E0,0E0,0E0],"parents":[2147483647,0,0,1,1,2,2,3,3,4,4,5,5,6,6],"right_children":[2,4,6,8,10,12,14,-1,-1,-1,-1,-1,-1,-1,-1],"split_conditions":[3.285654E3,2.024E3,5E0,1.4319225E3,1E0,3.6678015E3,3.542188E3,-6.511284E0,7.5997144E-4,9.483704E-1,1.8186356E1,1.02105E1,-1.0899286E1,1.1457438E1,2.7368185E1],"split_indices":[6,3,0,7,0,6,6,0,0,0,0,0,0,0,0],"split_type":[0,0,0,0,0,0,0,0,0,0,0,0,0,0,0],"sum_hessian":[3.89E2,3.63E2,2.6E1,3.57E2,6E0,1.9E1,7E0,3.9E1,3.18E2,1E0,5E0,1.4E1,5E0,4E0,3E0],"tree_param":{"num_deleted":"0","num_feature":"9","num_nodes":"15","size_leaf_vector":"1"}},{"base_weights":[-2.3536173E1,-3.598238E1,1.6932356E2,-2.7918642E1,-3.973768E2,5.5515972E1,2.9877655E2,-1.8786122E0,1.42206135E1,-4.5777955E0,-2.8127909E1,-3.0988176E0,9.093103E0,2.3192223E1,4.195628E0],"categories":[],"categories_nodes":[],"categories_segments":[],"categories_sizes":[],"default_left":[0,0,0,0,0,0,0,0,0,0,0,0,0,0,0],"id":69,"left_children":[1,3,5,7,9,11,13,-1,-1,-1,-1,-1,-1,-1,-1],"loss_changes":[9.4943925E5,1.0671564E6,3.3699862E5,1.105174E6,3.5262162E5,2.1909686E5,3.5121625E5,0E0,0E0,0E0,0E0,0E0,0E0,0E0,0E0],"parents":[2147483647,0,0,1,1,2,2,3,3,4,4,5,5,6,6],"right_children":[2,4,6,8,10,12,14,-1,-1,-1,-1,-1,-1,-1,-1],"split_conditions":[3.1891194E3,3.113702E3,2.6515889E3,3.0379746E3,2.5989585E3,3.501314E3,2.7917146E3,-1.8786122E0,1.42206135E1,-4.5777955E0,-2.8127909E1,-3.0988176E0,9.093103E0,2.3192223E1,4.195628E0],"split_indices":[6,6,8,6,8,6,8,0,0,0,0,0,0,0,0],"split_type":[0,0,0,0,0,0,0,0,0,0,0,0,0,0,0],"sum_hessian":[3.92E2,3.69E2,2.3E1,3.62E2,7E0,1.3E1,1E1,3.52E2,1E1,3E0,4E0,7E0,6E0,5E0,5E0],"tree_param":{"num_deleted":"0","num_feature":"9","num_nodes":"15","size_leaf_vector":"1"}},{"base_weights":[-3.5074607E-2,5.1398234E0,-3.2777277E2,-5.90018E0,1.4969617E2,-2.4399881E1,-1.2566096E2,4.2018555E-2,-1.7007948E1,-1.3363632E1,1.0647681E1,-1.0326843E0,-7.6889415E0],"categories":[],"categories_nodes":[],"categories_segments":[],"categories_sizes":[],"default_left":[0,0,0,0,0,0,0,0,0,0,0,0,0],"id":70,"left_children":[1,3,5,7,9,-1,11,-1,-1,-1,-1,-1,-1],"loss_changes":[6.546482E5,6.0732625E5,1.3297775E5,7.978791E5,7.690791E5,0E0,8.634219E3,0E0,0E0,0E0,0E0,0E0,0E0],"parents":[2147483647,0,0,1,1,2,2,3,3,4,4,6,6],"right_children":[2,4,6,8,10,-1,12,-1,-1,-1,-1,-1,-1],"split_conditions":[6E0,3.2358484E3,1.5E1,2.868096E3,2.261195E3,-2.4399881E1,1.8E1,4.2018555E-2,-1.7007948E1,-1.3363632E1,1.0647681E1,-1.0326843E0,-7.6889415E0],"split_indices":[0,6,1,8,7,0,1,0,0,0,0,0,0],"split_type":[0,0,0,0,0,0,0,0,0,0,0,0,0],"sum_hessian":[3.84E2,3.79E2,5E0,3.53E2,2.6E1,2E0,3E0,3.47E2,6E0,3E0,2.3E1,1E0,2E0],"tree_param":{"num_deleted":"0","num_feature":"9","num_nodes":"13","size_leaf_vector":"1"}},{"base_weights":[-7.729973E0,-3.396788E1,5.7252865E1,-2.217333E1,-1.9031645E2,2.439705E2,3.1317917E1,-1.8122705E0,1.7225546E1,-2.6203018E1,-3.7063355E0,2.7179132E1,5.6420755E0,-2.2240793E1,2.5025043E0],"categories":[],"categories_nodes":[],"categories_segments":[],"categories_sizes":[],"default_left":[0,0,0,0,0,0,0,0,0,0,0,0,0,0,0],"id":71,"left_children":[1,3,5,7,9,11,13,-1,-1,-1,-1,-1,-1,-1,-1],"loss_changes":[6.8736025E5,5.2502556E5,5.540909E5,1.39537E6,7.3670544E5,4.8869106E5,9.4092206E5,0E0,0E0,0E0,0E0,0E0,0E0,0E0,0E0],"parents":[2147483647,0,0,1,1,2,2,3,3,4,4,5,5,6,6],"right_children":[2,4,6,8,10,12,14,-1,-1,-1,-1,-1,-1,-1,-1],"split_conditions":[2.55087E3,2.4121045E3,2.1434268E3,2.3745916E3,2.4391746E3,2.6335056E3,2.1755603E3,-1.8122705E0,1.7225546E1,-2.6203018E1,-3.7063355E0,2.7179132E1,5.6420755E0,-2.2240793E1,2.5025043E0],"split_indices":[6,6,8,6,8,6,8,0,0,0,0,0,0,0,0],"split_type":[0,0,0,0,0,0,0,0,0,0,0,0,0,0,0],"sum_hessian":[4.01E2,2.86E2,1.15E2,2.67E2,1.9E1,1.3E1,1.02E2,2.58E2,9E0,4E0,1.5E1,3E0,1E1,3E0,9.9E1],"tree_param":{"num_deleted":"0","num_feature":"9","num_nodes":"15","size_leaf_vector":"1"}},{"base_weights":[-1.4813557E1,-4.3223713E1,5.983585E1,-1.2822679E2,-2.071963E1,3.2363794E2,1.617425E1,-2.124698E0,-1.7530981E1,-1.8617125E0,5.512219E0,2.849697E1,1.8440872E0,1.5747339E1,-2.308332E-1],"categories":[],"categories_nodes":[],"categories_segments":[],"categories_sizes":[],"default_left":[0,0,0,0,0,0,0,0,0,0,0,0,0,0,0],"id":72,"left_children":[1,3,5,7,9,11,13,-1,-1,-1,-1,-1,-1,-1,-1],"loss_changes":[8.148532E5,5.29134E5,1.2156756E6,1.09095E6,4.8208828E5,1.0384065E6,5.729353E5,0E0,0E0,0E0,0E0,0E0,0E0,0E0,0E0],"parents":[2147483647,0,0,1,1,2,2,3,3,4,4,5,5,6,6],"right_children":[2,4,6,8,10,12,14,-1,-1,-1,-1,-1,-1,-1,-1],"split_conditions":[2.60514E3,9E0,4E0,2.2680354E3,2.360515E3,2.936084E3,2.6335056E3,-2.124698E0,-1.7530981E1,-1.8617125E0,5.512219E0,2.849697E1,1.8440872E0,1.5747339E1,-2.308332E-1],"split_indices":[6,1,1,6,6,6,6,0,0,0,0,0,0,0,0],"split_type":[0,0,0,0,0,0,0,0,0,0,0,0,0,0,0],"sum_hessian":[3.82E2,2.77E2,1.05E2,5.7E1,2.2E2,1.4E1,9.1E1,4.2E1,1.5E1,1.96E2,2.4E1,7E0,7E0,5E0,8.6E1],"tree_param":{"num_deleted":"0","num_feature":"9","num_nodes":"15","size_leaf_vector":"1"}},{"base_weights":[1.8684011E1,-1.5071596E1,1.088425E2,-7.6878796E0,-3.522106E2,2.0351144E2,-1.7004877E1,-1.6736569E-1,-3.0033588E1,-2.4055826E1,-3.146627E0,1.8932981E1,4.974583E0,-2.5599468E1,8.5652685E-1],"categories":[],"categories_nodes":[],"categories_segments":[],"categories_sizes":[],"default_left":[0,0,0,0,0,0,0,0,0,0,0,0,0,0,0],"id":73,"left_children":[1,3,5,7,9,11,13,-1,-1,-1,-1,-1,-1,-1,-1],"loss_changes":[1.1733319E6,6.967965E5,1.2544141E6,7.083818E5,1.9346E5,1.055459E6,7.860097E5,0E0,0E0,0E0,0E0,0E0,0E0,0E0,0E0],"parents":[2147483647,0,0,1,1,2,2,3,3,4,4,5,5,6,6],"right_children":[2,4,6,8,10,12,14,-1,-1,-1,-1,-1,-1,-1,-1],"split_conditions":[2.521738E3,2.4875225E3,3.0207644E3,2.8942114E3,9E0,1.1E1,3.0225205E3,-1.6736569E-1,-3.0033588E1,-2.4055826E1,-3.146627E0,1.8932981E1,4.974583E0,-2.5599468E1,8.5652685E-1],"split_indices":[6,6,6,7,1,1,6,0,0,0,0,0,0,0,0],"split_type":[0,0,0,0,0,0,0,0,0,0,0,0,0,0,0],"sum_hessian":[3.84E2,2.8E2,1.04E2,2.75E2,5E0,5.9E1,4.5E1,2.74E2,1E0,3E0,2E0,2.1E1,3.8E1,2E0,4.3E1],"tree_param":{"num_deleted":"0","num_feature":"9","num_nodes":"15","size_leaf_vector":"1"}},{"base_weights":[8.499305E0,-1.0578764E1,2.4306383E2,1.1777285E1,-1.3354793E2,3.333526E1,4.1138483E2,-2.3346518E-1,8.36651E0,-2.6651332E0,-2.6888395E1,-6.7800784E0,8.849403E0,2.9374052E1,8.092676E0],"categories":[],"categories_nodes":[],"categories_segments":[],"categories_sizes":[],"default_left":[0,0,0,0,0,0,0,0,0,0,0,0,0,0,0],"id":74,"left_children":[1,3,5,7,9,11,13,-1,-1,-1,-1,-1,-1,-1,-1],"loss_changes":[1.725461E6,9.830032E5,1.01003625E6,7.759507E5,1.755356E6,3.6375534E5,6.079785E5,0E0,0E0,0E0,0E0,0E0,0E0,0E0,0E0],"parents":[2147483647,0,0,1,1,2,2,3,3,4,4,5,5,6,6],"right_children":[2,4,6,8,10,12,14,-1,-1,-1,-1,-1,-1,-1,-1],"split_conditions":[3.1891194E3,2.6653088E3,2.6515889E3,2.7683584E3,2.936084E3,3.501314E3,2.7917146E3,-2.3346518E-1,8.36651E0,-2.6651332E0,-2.6888395E1,-6.7800784E0,8.849403E0,2.9374052E1,8.092676E0],"split_indices":[6,8,8,6,6,6,8,0,0,0,0,0,0,0,0],"split_type":[0,0,0,0,0,0,0,0,0,0,0,0,0,0,0],"sum_hessian":[3.84E2,3.56E2,2.8E1,3.02E2,5.4E1,1.3E1,1.5E1,2.74E2,2.8E1,4.6E1,8E0,6E0,7E0,8E0,7E0],"tree_param":{"num_deleted":"0","num_feature":"9","num_nodes":"15","size_leaf_vector":"1"}},{"base_weights":[9.259209E0,-1.441221E0,3.2297498E2,4.2474666E0,-2.679183E2,-1.9904053E1,4.2782907E2,6.222447E-1,-9.666022E0,-7.7923694E0,-2.6310368E1,4.936719E0,-4.618083E0,1.0209651E1,2.7144382E1],"categories":[],"categories_nodes":[],"categories_segments":[],"categories_sizes":[],"default_left":[0,0,0,0,0,0,0,0,0,0,0,0,0,0,0],"id":75,"left_children":[1,3,5,7,9,11,13,-1,-1,-1,-1,-1,-1,-1,-1],"loss_changes":[1.3230815E6,5.802136E5,4.7589512E5,6.0973656E5,1.4956544E5,4.3504293E4,1.464585E5,0E0,0E0,0E0,0E0,0E0,0E0,0E0,0E0],"parents":[2147483647,0,0,1,1,2,2,3,3,4,4,5,5,6,6],"right_children":[2,4,6,8,10,12,14,-1,-1,-1,-1,-1,-1,-1,-1],"split_conditions":[3.126318E3,6E0,2E0,2.920383E3,1.9559948E3,5E0,3.1371372E3,6.222447E-1,-9.666022E0,-7.7923694E0,-2.6310368E1,4.936719E0,-4.618083E0,1.0209651E1,2.7144382E1],"split_indices":[7,0,0,7,7,2,7,0,0,0,0,0,0,0,0],"split_type":[0,0,0,0,0,0,0,0,0,0,0,0,0,0,0],"sum_hessian":[3.93E2,3.81E2,1.2E1,3.74E2,7E0,3E0,9E0,3.6E2,1.4E1,6E0,1E0,1E0,2E0,4E0,5E0],"tree_param":{"num_deleted":"0","num_feature":"9","num_nodes":"15","size_leaf_vector":"1"}},{"base_weights":[4.111782E0,1.5172403E1,-1.14196335E2,-1.099442E1,1.23216354E2,-2.4160704E1,-6.450049E1,1.3630453E-1,-8.877436E0,4.729932E0,2.4674883E1,-1.1737255E1,1.1776834E0],"categories":[],"categories_nodes":[],"categories_segments":[],"categories_sizes":[],"default_left":[0,0,0,0,0,0,0,0,0,0,0,0,0],"id":76,"left_children":[1,3,5,7,9,-1,11,-1,-1,-1,-1,-1,-1],"loss_changes":[5.356256E5,1.058715E6,6.106851E5,6.906174E5,7.2686825E5,0E0,4.85233E5,0E0,0E0,0E0,0E0,0E0,0E0],"parents":[2147483647,0,0,1,1,2,2,3,3,4,4,6,6],"right_children":[2,4,6,8,10,-1,12,-1,-1,-1,-1,-1,-1],"split_conditions":[2.7602932E3,2.5807727E3,2.7840662E3,2.4966587E3,2.7330618E3,-2.4160704E1,2E0,1.3630453E-1,-8.877436E0,4.729932E0,2.4674883E1,-1.1737255E1,1.1776834E0],"split_indices":[8,7,8,7,8,0,0,0,0,0,0,0,0],"split_type":[0,0,0,0,0,0,0,0,0,0,0,0,0],"sum_hessian":[4.07E2,3.73E2,3.4E1,3.01E2,7.2E1,3E0,3.1E1,2.79E2,2.2E1,6.8E1,4E0,1E1,2.1E1],"tree_param":{"num_deleted":"0","num_feature":"9","num_nodes":"13","size_leaf_vector":"1"}},{"base_weights":[-5.006454E0,-6.455887E1,1.8535625E1,-2.725822E2,-5.2174915E1,1.7776776E2,2.291207E0,8.263718E-1,-1.6685482E1,-2.112389E-1,-5.0944023E0,1.4633634E1,9.6613187E-1,7.7626115E-1,-6.0306053E0],"categories":[],"categories_nodes":[],"categories_segments":[],"categories_sizes":[],"default_left":[0,0,0,0,0,0,0,0,0,0,0,0,0,0,0],"id":77,"left_children":[1,3,5,7,9,11,13,-1,-1,-1,-1,-1,-1,-1,-1],"loss_changes":[5.493738E5,2.717308E5,7.264366E5,1.115505E5,2.5224725E5,4.67704E5,4.1825766E5,0E0,0E0,0E0,0E0,0E0,0E0,0E0,0E0],"parents":[2147483647,0,0,1,1,2,2,3,3,4,4,5,5,6,6],"right_children":[2,4,6,8,10,12,14,-1,-1,-1,-1,-1,-1,-1,-1],"split_conditions":[1.7138809E3,1.0546823E3,1.7783948E3,1E0,1.5853037E3,3E0,2.8183027E3,8.263718E-1,-1.6685482E1,-2.112389E-1,-5.0944023E0,1.4633634E1,9.6613187E-1,7.7626115E-1,-6.0306053E0],"split_indices":[8,8,8,0,8,0,8,0,0,0,0,0,0,0,0],"split_type":[0,0,0,0,0,0,0,0,0,0,0,0,0,0,0],"sum_hessian":[3.9E2,1.1E2,2.8E2,5E0,1.05E2,2.5E1,2.55E2,1E0,4E0,5.4E1,5.1E1,1.4E1,1.1E1,2.31E2,2.4E1],"tree_param":{"num_deleted":"0","num_feature":"9","num_nodes":"15","size_leaf_vector":"1"}},{"base_weights":[1.899568E0,9.643286E0,-2.9255167E2,4.2761087E0,2.9502628E2,-4.069792E2,-1.9165588E1,5.656729E-1,-1.5954841E1,1.9020636E1,6.7941623E0,-2.2633667E-1,-2.3665007E1,1.7382208E1,-1.2865845E1],"categories":[],"categories_nodes":[],"categories_segments":[],"categories_sizes":[],"default_left":[0,0,0,0,0,0,0,0,0,0,0,0,0,0,0],"id":78,"left_children":[1,3,5,7,9,11,13,-1,-1,-1,-1,-1,-1,-1,-1],"loss_changes":[8.897984E5,5.807848E5,3.0502894E5,8.547174E5,4.3428875E4,1.8469475E5,4.388796E5,0E0,0E0,0E0,0E0,0E0,0E0,0E0,0E0],"parents":[2147483647,0,0,1,1,2,2,3,3,4,4,5,5,6,6],"right_children":[2,4,6,8,10,12,14,-1,-1,-1,-1,-1,-1,-1,-1],"split_conditions":[2.868096E3,2.8383083E3,3.1102498E3,2.8183027E3,2.845006E3,2.6895422E3,3.132612E3,5.656729E-1,-1.5954841E1,1.9020636E1,6.7941623E0,-2.2633667E-1,-2.3665007E1,1.7382208E1,-1.2865845E1],"split_indices":[8,8,7,8,8,7,7,0,0,0,0,0,0,0,0],"split_type":[0,0,0,0,0,0,0,0,0,0,0,0,0,0,0],"sum_hessian":[3.88E2,3.79E2,9E0,3.73E2,6E0,6E0,3E0,3.66E2,7E0,3E0,3E0,1E0,5E0,1E0,2E0],"tree_param":{"num_deleted":"0","num_feature":"9","num_nodes":"15","size_leaf_vector":"1"}},{"base_weights":[-6.626141E-1,-3.257649E1,5.745416E1,-1.910576E1,-2.7047125E2,-1.712124E2,8.771643E1,-1.3634022E0,1.7845774E1,-5.6552563E0,-2.9813437E1,6.0973186E0,-1.1090134E1,3.296707E0,1.38223715E1],"categories":[],"categories_nodes":[],"categories_segments":[],"categories_sizes":[],"default_left":[0,0,0,0,0,0,0,0,0,0,0,0,0,0,0],"id":79,"left_children":[1,3,5,7,9,11,13,-1,-1,-1,-1,-1,-1,-1,-1],"loss_changes":[7.011054E5,7.7675856E5,9.422941E5,7.217849E5,5.990623E5,2.6434375E5,4.7098106E5,0E0,0E0,0E0,0E0,0E0,0E0,0E0,0E0],"parents":[2147483647,0,0,1,1,2,2,3,3,4,4,5,5,6,6],"right_children":[2,4,6,8,10,12,14,-1,-1,-1,-1,-1,-1,-1,-1],"split_conditions":[2.453309E3,2.3947876E3,1E0,2.378001E3,4E0,2.540028E3,3.501314E3,-1.3634022E0,1.7845774E1,-5.6552563E0,-2.9813437E1,6.0973186E0,-1.1090134E1,3.296707E0,1.38223715E1],"split_indices":[6,6,0,6,0,6,6,0,0,0,0,0,0,0,0],"split_type":[0,0,0,0,0,0,0,0,0,0,0,0,0,0,0],"sum_hessian":[3.76E2,2.43E2,1.33E2,2.31E2,1.2E1,1.5E1,1.18E2,2.27E2,4E0,9E0,3E0,2E0,1.3E1,1.07E2,1.1E1],"tree_param":{"num_deleted":"0","num_feature":"9","num_nodes":"15","size_leaf_vector":"1"}},{"base_weights":[-1.2977911E1,-5.1936256E1,3.0096207E1,-4.5241642E1,-2.404659E1,1.9384633E2,-2.4705254E1,-2.8700557E0,6.020286E0,1.2244776E1,-3.9624634E0,-7.147491E-1,-1.8493782E1],"categories":[],"categories_nodes":[],"categories_segments":[],"categories_sizes":[],"default_left":[0,0,0,0,0,0,0,0,0,0,0,0,0],"id":80,"left_children":[1,3,5,7,-1,9,11,-1,-1,-1,-1,-1,-1],"loss_changes":[6.459521E5,5.583777E5,1.6469845E6,4.097483E5,0E0,6.60708E5,4.9059044E5,0E0,0E0,0E0,0E0,0E0,0E0],"parents":[2147483647,0,0,1,1,2,2,3,3,5,5,6,6],"right_children":[2,4,6,8,-1,10,12,-1,-1,-1,-1,-1,-1],"split_conditions":[2.137348E3,2.7281145E3,2.3865469E3,2.4525637E3,-2.404659E1,2.936084E3,1E0,-2.8700557E0,6.020286E0,1.2244776E1,-3.9624634E0,-7.147491E-1,-1.8493782E1],"split_indices":[6,7,8,7,0,6,5,0,0,0,0,0,0],"split_type":[0,0,0,0,0,0,0,0,0,0,0,0,0],"sum_hessian":[3.83E2,2.01E2,1.82E2,1.99E2,2E0,4.5E1,1.37E2,1.86E2,1.3E1,3.8E1,7E0,1.34E2,3E0],"tree_param":{"num_deleted":"0","num_feature":"9","num_nodes":"13","size_leaf_vector":"1"}},{"base_weights":[7.2836843E0,-2.4753685E1,6.9066795E1,-1.9199007E1,-1.8008902E1,-1.3315361E2,1.0094984E2,3.6484146E0,-2.0666919E0,-2.3293367E1,-1.7776521E0,-1.3385805E1,6.033962E0],"categories":[],"categories_nodes":[],"categories_segments":[],"categories_sizes":[],"default_left":[0,0,0,0,0,0,0,0,0,0,0,0,0],"id":81,"left_children":[1,3,5,7,-1,9,11,-1,-1,-1,-1,-1,-1],"loss_changes":[7.4793156E5,4.5701544E5,8.4515656E5,5.048825E5,0E0,5.679519E5,8.4694625E5,0E0,0E0,0E0,0E0,0E0,0E0],"parents":[2147483647,0,0,1,1,2,2,3,3,5,5,6,6],"right_children":[2,4,6,8,-1,10,12,-1,-1,-1,-1,-1,-1],"split_conditions":[2.3745916E3,2.365557E3,1E0,8E0,-1.8008902E1,1E1,1.8858677E3,3.6484146E0,-2.0666919E0,-2.3293367E1,-1.7776521E0,-1.3385805E1,6.033962E0],"split_indices":[6,6,0,1,0,1,7,0,0,0,0,0,0],"split_type":[0,0,0,0,0,0,0,0,0,0,0,0,0],"sum_hessian":[3.76E2,2.48E2,1.28E2,2.45E2,3E0,1.7E1,1.11E2,4.7E1,1.98E2,3E0,1.4E1,5E0,1.06E2],"tree_param":{"num_deleted":"0","num_feature":"9","num_nodes":"13","size_leaf_vector":"1"}},{"base_weights":[-4.831497E0,-5.5936516E1,2.948385E1,-4.6646973E1,-2.5243233E1,4.8166546E-1,1.3012906E2,-1.4404368E1,-1.8202633E0,1.060914E1,-7.366638E-1,1.3419243E1,3.52812E0],"categories":[],"categories_nodes":[],"categories_segments":[],"categories_sizes":[],"default_left":[0,0,0,0,0,0,0,0,0,0,0,0,0],"id":82,"left_children":[1,3,5,7,-1,9,11,-1,-1,-1,-1,-1,-1],"loss_changes":[6.680501E5,6.1451125E5,6.6545356E5,3.6289916E5,0E0,5.764678E5,4.010693E5,0E0,0E0,0E0,0E0,0E0,0E0],"parents":[2147483647,0,0,1,1,2,2,3,3,5,5,6,6],"right_children":[2,4,6,8,-1,10,12,-1,-1,-1,-1,-1,-1],"split_conditions":[1.946084E3,1.935237E3,1.1E1,1.0448828E3,-2.5243233E1,1.7373667E3,8E0,-1.4404368E1,-1.8202633E0,1.060914E1,-7.366638E-1,1.3419243E1,3.52812E0],"split_indices":[6,6,2,7,0,7,1,0,0,0,0,0,0],"split_type":[0,0,0,0,0,0,0,0,0,0,0,0,0],"sum_hessian":[3.79E2,1.52E2,2.27E2,1.5E2,2E0,1.77E2,5E1,5E0,1.45E2,1.1E1,1.66E2,1.4E1,3.6E1],"tree_param":{"num_deleted":"0","num_feature":"9","num_nodes":"13","size_leaf_vector":"1"}},{"base_weights":[-2.2587439E1,-2.686386E1,2.6188541E1,-8.488399E1,4.251611E0,-4.6406703E0,2.3846725E1,6.4066186E0,-9.7960263E-1],"categories":[],"categories_nodes":[],"categories_segments":[],"categories_sizes":[],"default_left":[0,0,0,0,0,0,0,0,0],"id":83,"left_children":[1,3,-1,5,7,-1,-1,-1,-1],"loss_changes":[9.019246E5,6.8277325E5,0E0,6.3231144E5,7.320919E5,0E0,0E0,0E0,0E0],"parents":[2147483647,0,0,1,1,3,3,4,4],"right_children":[2,4,-1,6,8,-1,-1,-1,-1],"split_conditions":[3.887497E3,1.8718735E3,2.6188541E1,2.6998079E3,2.0446315E3,-4.6406703E0,2.3846725E1,6.4066186E0,-9.7960263E-1],"split_indices":[6,6,0,8,6,0,0,0,0],"split_type":[0,0,0,0,0,0,0,0,0],"sum_hessian":[3.79E2,3.77E2,2E0,1.31E2,2.46E2,1.3E2,1E0,3.9E1,2.07E2],"tree_param":{"num_deleted":"0","num_feature":"9","num_nodes":"9","size_leaf_vector":"1"}},{"base_weights":[2.7361277E1,-4.0915833E1,6.3510902E1,-2.1403364E1,-2.2538837E2,1.718932E2,3.727824E1,-2.4055002E0,1.2987409E1,-2.5817844E1,-4.323107E0,2.1186808E1,-3.8437374E0,1.7005226E1,1.4094424E0],"categories":[],"categories_nodes":[],"categories_segments":[],"categories_sizes":[],"default_left":[0,0,0,0,0,0,0,0,0,0,0,0,0,0,0],"id":84,"left_children":[1,3,5,7,9,11,13,-1,-1,-1,-1,-1,-1,-1,-1],"loss_changes":[9.750661E5,4.883095E5,7.271263E5,9.51073E5,4.808557E5,3.165098E6,5.656868E5,0E0,0E0,0E0,0E0,0E0,0E0,0E0,0E0],"parents":[2147483647,0,0,1,1,2,2,3,3,4,4,5,5,6,6],"right_children":[2,4,6,8,10,12,14,-1,-1,-1,-1,-1,-1,-1,-1],"split_conditions":[1.8619504E3,1.792081E3,2.023E3,1.728614E3,1.822425E3,3E0,2E0,-2.4055002E0,1.2987409E1,-2.5817844E1,-4.323107E0,2.1186808E1,-3.8437374E0,1.7005226E1,1.4094424E0],"split_indices":[6,6,3,6,6,0,1,0,0,0,0,0,0,0,0],"split_type":[0,0,0,0,0,0,0,0,0,0,0,0,0,0,0],"sum_hessian":[3.93E2,1.36E2,2.57E2,1.24E2,1.2E1,4.9E1,2.08E2,1.14E2,1E1,3E0,9E0,2.4E1,2.5E1,5E0,2.03E2],"tree_param":{"num_deleted":"0","num_feature":"9","num_nodes":"15","size_leaf_vector":"1"}},{"base_weights":[5.335944E0,1.0803251E1,-2.5434474E2,3.2613277E0,1.7121002E2,-2.5069536E1,-1.4742522E2,4.490409E0,-6.2425256E-1,1.0846526E1,-5.7231245E0,3.8316727E-1,-8.727527E0],"categories":[],"categories_nodes":[],"categories_segments":[],"categories_sizes":[],"default_left":[0,0,0,0,0,0,0,0,0,0,0,0,0],"id":85,"left_children":[1,3,5,7,9,-1,11,-1,-1,-1,-1,-1,-1],"loss_changes":[5.507729E5,4.579466E5,1.3739469E5,4.9581744E5,2.46869E5,0E0,3.0785438E4,0E0,0E0,0E0,0E0,0E0,0E0],"parents":[2147483647,0,0,1,1,2,2,3,3,4,4,6,6],"right_children":[2,4,6,8,10,-1,12,-1,-1,-1,-1,-1,-1],"split_conditions":[6E0,2.8383083E3,5E0,6E0,2.2E1,-2.5069536E1,9.018485E2,4.490409E0,-6.2425256E-1,1.0846526E1,-5.7231245E0,3.8316727E-1,-8.727527E0],"split_indices":[0,8,1,1,1,0,8,0,0,0,0,0,0],"split_type":[0,0,0,0,0,0,0,0,0,0,0,0,0],"sum_hessian":[3.85E2,3.78E2,7E0,3.62E2,1.6E1,1E0,6E0,5.5E1,3.07E2,1.4E1,2E0,1E0,5E0],"tree_param":{"num_deleted":"0","num_feature":"9","num_nodes":"13","size_leaf_vector":"1"}},{"base_weights":[3.5986035E0,-3.8437523E1,1.08454475E2,-1.5742661E1,-2.2023615E2,3.619535E2,6.2182926E1,-1.2270368E0,1.9605867E1,-2.4759342E1,-3.5874498E0,2.926695E1,6.1585803E0,-1.0279103E1,4.3621206E0],"categories":[],"categories_nodes":[],"categories_segments":[],"categories_sizes":[],"default_left":[0,0,0,0,0,0,0,0,0,0,0,0,0,0,0],"id":86,"left_children":[1,3,5,7,9,11,13,-1,-1,-1,-1,-1,-1,-1,-1],"loss_changes":[1.6173996E6,1.0775172E6,1.2091209E6,8.4930444E5,1.1484432E6,7.8134925E5,6.218401E5,0E0,0E0,0E0,0E0,0E0,0E0,0E0,0E0],"parents":[2147483647,0,0,1,1,2,2,3,3,4,4,5,5,6,6],"right_children":[2,4,6,8,10,12,14,-1,-1,-1,-1,-1,-1,-1,-1],"split_conditions":[2.594581E3,2.3907444E3,4E0,2.3745916E3,8E0,2.4378943E3,5E0,-1.2270368E0,1.9605867E1,-2.4759342E1,-3.5874498E0,2.926695E1,6.1585803E0,-1.0279103E1,4.3621206E0],"split_indices":[6,6,1,6,1,7,1,0,0,0,0,0,0,0,0],"split_type":[0,0,0,0,0,0,0,0,0,0,0,0,0,0,0],"sum_hessian":[3.65E2,2.61E2,1.04E2,2.33E2,2.8E1,1.5E1,8.9E1,2.29E2,4E0,9E0,1.9E1,7E0,8E0,7E0,8.2E1],"tree_param":{"num_deleted":"0","num_feature":"9","num_nodes":"15","size_leaf_vector":"1"}},{"base_weights":[6.440982E0,1.1235036E1,-2.3047131E2,5.2273315E1,-1.9821598E1,-9.7936554E1,-2.0935852E1,1.0752137E0,8.31026E0,-1.5912923E-1,-9.06531E0,-5.464968E-1,-6.935369E0],"categories":[],"categories_nodes":[],"categories_segments":[],"categories_sizes":[],"default_left":[0,0,0,0,0,0,0,0,0,0,0,0,0],"id":87,"left_children":[1,3,5,7,9,11,-1,-1,-1,-1,-1,-1,-1],"loss_changes":[4.5803325E5,5.0319344E5,1.5858512E5,5.9237356E5,6.0398544E5,1.9767926E4,0E0,0E0,0E0,0E0,0E0,0E0,0E0],"parents":[2147483647,0,0,1,1,2,2,3,3,4,4,5,5],"right_children":[2,4,6,8,10,12,-1,-1,-1,-1,-1,-1,-1],"split_conditions":[6E0,7E0,7.75747E2,2.72752E3,2.999384E3,1.8E1,-2.0935852E1,1.0752137E0,8.31026E0,-1.5912923E-1,-9.06531E0,-5.464968E-1,-6.935369E0],"split_indices":[0,2,6,6,6,1,0,0,0,0,0,0,0],"split_type":[0,0,0,0,0,0,0,0,0,0,0,0,0],"sum_hessian":[4E2,3.93E2,7E0,1.69E2,2.24E2,5E0,2E0,1.34E2,3.5E1,2.04E2,2E1,2E0,3E0],"tree_param":{"num_deleted":"0","num_feature":"9","num_nodes":"13","size_leaf_vector":"1"}},{"base_weights":[9.591008E0,-1.0579549E2,1.972564E1,-1.8676727E2,-6.9744396E0,2.8463367E1,1.4958923E1,-5.9998965E0,-1.8688406E1,2.0349258E1,-7.218988E0,8.836161E-1,-2.3300419E1],"categories":[],"categories_nodes":[],"categories_segments":[],"categories_sizes":[],"default_left":[0,0,0,0,0,0,0,0,0,0,0,0,0],"id":88,"left_children":[1,3,5,7,9,-1,11,-1,-1,-1,-1,-1,-1],"loss_changes":[4.4879756E5,2.4675062E5,9.1355175E5,1.6740925E5,9.1196425E5,0E0,4.6500484E5,0E0,0E0,0E0,0E0,0E0,0E0],"parents":[2147483647,0,0,1,1,2,2,3,3,4,4,6,6],"right_children":[2,4,6,8,10,-1,12,-1,-1,-1,-1,-1,-1],"split_conditions":[1.200385E3,1.526585E3,1.209643E3,1.4441095E3,1.6046719E3,2.8463367E1,6E0,-5.9998965E0,-1.8688406E1,2.0349258E1,-7.218988E0,8.836161E-1,-2.3300419E1],"split_indices":[6,8,6,8,8,0,0,0,0,0,0,0,0],"split_type":[0,0,0,0,0,0,0,0,0,0,0,0,0],"sum_hessian":[3.81E2,3E1,3.51E2,1.6E1,1.4E1,2E0,3.49E2,1.3E1,3E0,3E0,1.1E1,3.48E2,1E0],"tree_param":{"num_deleted":"0","num_feature":"9","num_nodes":"13","size_leaf_vector":"1"}},{"base_weights":[-9.129565E0,-8.281089E1,4.657699E0,-1.546482E2,-1.4994829E1,4.4491856E1,-4.765698E1,-5.9267383E0,-1.7987593E1,2.334788E1,-3.057584E0,3.683734E-1,6.626536E0,-8.4221735E0,1.0292281E-1],"categories":[],"categories_nodes":[],"categories_segments":[],"categories_sizes":[],"default_left":[0,0,0,0,0,0,0,0,0,0,0,0,0,0,0],"id":89,"left_children":[1,3,5,7,9,11,13,-1,-1,-1,-1,-1,-1,-1,-1],"loss_changes":[3.9962025E5,2.997279E5,6.939788E5,1.7956681E5,7.626537E5,6.16749E5,8.650599E5,0E0,0E0,0E0,0E0,0E0,0E0,0E0,0E0],"parents":[2147483647,0,0,1,1,2,2,3,3,4,4,5,5,6,6],"right_children":[2,4,6,8,10,12,14,-1,-1,-1,-1,-1,-1,-1,-1],"split_conditions":[1.441492E3,1.526585E3,2.5134944E3,7E0,1.5583778E3,2.2476006E3,2.5861877E3,-5.9267383E0,-1.7987593E1,2.334788E1,-3.057584E0,3.683734E-1,6.626536E0,-8.4221735E0,1.0292281E-1],"split_indices":[6,8,8,2,8,6,8,0,0,0,0,0,0,0,0],"split_type":[0,0,0,0,0,0,0,0,0,0,0,0,0,0,0],"sum_hessian":[3.92E2,6.1E1,3.31E2,2.9E1,3.2E1,1.88E2,1.43E2,2.6E1,3E0,2E0,3E1,1.33E2,5.5E1,4.1E1,1.02E2],"tree_param":{"num_deleted":"0","num_feature":"9","num_nodes":"15","size_leaf_vector":"1"}},{"base_weights":[-4.0948772E0,-2.8456194E1,5.4572147E1,-1.3684745E1,-2.037487E2,2.6534986E1,3.3210655E1,1.1462996E1,-1.2096733E0,-1.3077153E1,6.0855837E0,9.433459E0,-3.0074814E-1],"categories":[],"categories_nodes":[],"categories_segments":[],"categories_sizes":[],"default_left":[0,0,0,0,0,0,0,0,0,0,0,0,0],"id":90,"left_children":[1,3,5,7,9,-1,11,-1,-1,-1,-1,-1,-1],"loss_changes":[5.746645E5,7.3258E5,1.1825288E6,6.769955E5,4.4564775E5,0E0,6.96302E5,0E0,0E0,0E0,0E0,0E0,0E0],"parents":[2147483647,0,0,1,1,2,2,3,3,4,4,6,6],"right_children":[2,4,6,8,10,-1,12,-1,-1,-1,-1,-1,-1],"split_conditions":[2.5807727E3,2.4966587E3,4E0,2E0,1.2E1,2.6534986E1,2.643266E3,1.1462996E1,-1.2096733E0,-1.3077153E1,6.0855837E0,9.433459E0,-3.0074814E-1],"split_indices":[7,7,1,1,2,0,7,0,0,0,0,0,0],"split_type":[0,0,0,0,0,0,0,0,0,0,0,0,0],"sum_hessian":[4E2,2.83E2,1.17E2,2.62E2,2.1E1,4E0,1.13E2,1E1,2.52E2,1.8E1,3E0,2.2E1,9.1E1],"tree_param":{"num_deleted":"0","num_feature":"9","num_nodes":"13","size_leaf_vector":"1"}},{"base_weights":[-1.4041777E1,-2.5660141E1,1.5049596E2,-1.8455116E1,-2.7180647E1,2.1022388E1,4.9892105E2,8.340277E-2,-5.288935E0,6.281032E0,-1.5894824E1,2.7480991E1,4.868213E0],"categories":[],"categories_nodes":[],"categories_segments":[],"categories_sizes":[],"default_left":[0,0,0,0,0,0,0,0,0,0,0,0,0],"id":91,"left_children":[1,3,5,7,-1,9,11,-1,-1,-1,-1,-1,-1],"loss_changes":[7.532321E5,1.3595611E6,1.1624194E6,6.3805E5,0E0,7.4894075E5,8.899575E4,0E0,0E0,0E0,0E0,0E0,0E0],"parents":[2147483647,0,0,1,1,2,2,3,3,5,5,6,6],"right_children":[2,4,6,8,-1,10,12,-1,-1,-1,-1,-1,-1],"split_conditions":[3.2358484E3,2.8786611E3,5E0,5E0,-2.7180647E1,3.6678015E3,2.7882766E3,8.340277E-2,-5.288935E0,6.281032E0,-1.5894824E1,2.7480991E1,4.868213E0],"split_indices":[6,8,0,0,0,6,8,0,0,0,0,0,0],"split_type":[0,0,0,0,0,0,0,0,0,0,0,0,0],